tree
version=v4
num_class=3
num_tree_per_iteration=3
label_index=0
max_feature_idx=664
objective=multiclass num_class:3
feature_names=Column_0 Column_1 Column_2 Column_3 Column_4 Column_5 Column_6 Column_7 Column_8 Column_9 Column_10 Column_11 Column_12 Column_13 Column_14 Column_15 Column_16 Column_17 Column_18 Column_19 Column_20 Column_21 Column_22 Column_23 Column_24 Column_25 Column_26 Column_27 Column_28 Column_29 Column_30 Column_31 Column_32 Column_33 Column_34 Column_35 Column_36 Column_37 Column_38 Column_39 Column_40 Column_41 Column_42 Column_43 Column_44 Column_45 Column_46 Column_47 Column_48 Column_49 Column_50 Column_51 Column_52 Column_53 Column_54 Column_55 Column_56 Column_57 Column_58 Column_59 Column_60 Column_61 Column_62 Column_63 Column_64 Column_65 Column_66 Column_67 Column_68 Column_69 Column_70 Column_71 Column_72 Column_73 Column_74 Column_75 Column_76 Column_77 Column_78 Column_79 Column_80 Column_81 Column_82 Column_83 Column_84 Column_85 Column_86 Column_87 Column_88 Column_89 Column_90 Column_91 Column_92 Column_93 Column_94 Column_95 Column_96 Column_97 Column_98 Column_99 Column_100 Column_101 Column_102 Column_103 Column_104 Column_105 Column_106 Column_107 Column_108 Column_109 Column_110 Column_111 Column_112 Column_113 Column_114 Column_115 Column_116 Column_117 Column_118 Column_119 Column_120 Column_121 Column_122 Column_123 Column_124 Column_125 Column_126 Column_127 Column_128 Column_129 Column_130 Column_131 Column_132 Column_133 Column_134 Column_135 Column_136 Column_137 Column_138 Column_139 Column_140 Column_141 Column_142 Column_143 Column_144 Column_145 Column_146 Column_147 Column_148 Column_149 Column_150 Column_151 Column_152 Column_153 Column_154 Column_155 Column_156 Column_157 Column_158 Column_159 Column_160 Column_161 Column_162 Column_163 Column_164 Column_165 Column_166 Column_167 Column_168 Column_169 Column_170 Column_171 Column_172 Column_173 Column_174 Column_175 Column_176 Column_177 Column_178 Column_179 Column_180 Column_181 Column_182 Column_183 Column_184 Column_185 Column_186 Column_187 Column_188 Column_189 Column_190 Column_191 Column_192 Column_193 Column_194 Column_195 Column_196 Column_197 Column_198 Column_199 Column_200 Column_201 Column_202 Column_203 Column_204 Column_205 Column_206 Column_207 Column_208 Column_209 Column_210 Column_211 Column_212 Column_213 Column_214 Column_215 Column_216 Column_217 Column_218 Column_219 Column_220 Column_221 Column_222 Column_223 Column_224 Column_225 Column_226 Column_227 Column_228 Column_229 Column_230 Column_231 Column_232 Column_233 Column_234 Column_235 Column_236 Column_237 Column_238 Column_239 Column_240 Column_241 Column_242 Column_243 Column_244 Column_245 Column_246 Column_247 Column_248 Column_249 Column_250 Column_251 Column_252 Column_253 Column_254 Column_255 Column_256 Column_257 Column_258 Column_259 Column_260 Column_261 Column_262 Column_263 Column_264 Column_265 Column_266 Column_267 Column_268 Column_269 Column_270 Column_271 Column_272 Column_273 Column_274 Column_275 Column_276 Column_277 Column_278 Column_279 Column_280 Column_281 Column_282 Column_283 Column_284 Column_285 Column_286 Column_287 Column_288 Column_289 Column_290 Column_291 Column_292 Column_293 Column_294 Column_295 Column_296 Column_297 Column_298 Column_299 Column_300 Column_301 Column_302 Column_303 Column_304 Column_305 Column_306 Column_307 Column_308 Column_309 Column_310 Column_311 Column_312 Column_313 Column_314 Column_315 Column_316 Column_317 Column_318 Column_319 Column_320 Column_321 Column_322 Column_323 Column_324 Column_325 Column_326 Column_327 Column_328 Column_329 Column_330 Column_331 Column_332 Column_333 Column_334 Column_335 Column_336 Column_337 Column_338 Column_339 Column_340 Column_341 Column_342 Column_343 Column_344 Column_345 Column_346 Column_347 Column_348 Column_349 Column_350 Column_351 Column_352 Column_353 Column_354 Column_355 Column_356 Column_357 Column_358 Column_359 Column_360 Column_361 Column_362 Column_363 Column_364 Column_365 Column_366 Column_367 Column_368 Column_369 Column_370 Column_371 Column_372 Column_373 Column_374 Column_375 Column_376 Column_377 Column_378 Column_379 Column_380 Column_381 Column_382 Column_383 Column_384 Column_385 Column_386 Column_387 Column_388 Column_389 Column_390 Column_391 Column_392 Column_393 Column_394 Column_395 Column_396 Column_397 Column_398 Column_399 Column_400 Column_401 Column_402 Column_403 Column_404 Column_405 Column_406 Column_407 Column_408 Column_409 Column_410 Column_411 Column_412 Column_413 Column_414 Column_415 Column_416 Column_417 Column_418 Column_419 Column_420 Column_421 Column_422 Column_423 Column_424 Column_425 Column_426 Column_427 Column_428 Column_429 Column_430 Column_431 Column_432 Column_433 Column_434 Column_435 Column_436 Column_437 Column_438 Column_439 Column_440 Column_441 Column_442 Column_443 Column_444 Column_445 Column_446 Column_447 Column_448 Column_449 Column_450 Column_451 Column_452 Column_453 Column_454 Column_455 Column_456 Column_457 Column_458 Column_459 Column_460 Column_461 Column_462 Column_463 Column_464 Column_465 Column_466 Column_467 Column_468 Column_469 Column_470 Column_471 Column_472 Column_473 Column_474 Column_475 Column_476 Column_477 Column_478 Column_479 Column_480 Column_481 Column_482 Column_483 Column_484 Column_485 Column_486 Column_487 Column_488 Column_489 Column_490 Column_491 Column_492 Column_493 Column_494 Column_495 Column_496 Column_497 Column_498 Column_499 Column_500 Column_501 Column_502 Column_503 Column_504 Column_505 Column_506 Column_507 Column_508 Column_509 Column_510 Column_511 Column_512 Column_513 Column_514 Column_515 Column_516 Column_517 Column_518 Column_519 Column_520 Column_521 Column_522 Column_523 Column_524 Column_525 Column_526 Column_527 Column_528 Column_529 Column_530 Column_531 Column_532 Column_533 Column_534 Column_535 Column_536 Column_537 Column_538 Column_539 Column_540 Column_541 Column_542 Column_543 Column_544 Column_545 Column_546 Column_547 Column_548 Column_549 Column_550 Column_551 Column_552 Column_553 Column_554 Column_555 Column_556 Column_557 Column_558 Column_559 Column_560 Column_561 Column_562 Column_563 Column_564 Column_565 Column_566 Column_567 Column_568 Column_569 Column_570 Column_571 Column_572 Column_573 Column_574 Column_575 Column_576 Column_577 Column_578 Column_579 Column_580 Column_581 Column_582 Column_583 Column_584 Column_585 Column_586 Column_587 Column_588 Column_589 Column_590 Column_591 Column_592 Column_593 Column_594 Column_595 Column_596 Column_597 Column_598 Column_599 Column_600 Column_601 Column_602 Column_603 Column_604 Column_605 Column_606 Column_607 Column_608 Column_609 Column_610 Column_611 Column_612 Column_613 Column_614 Column_615 Column_616 Column_617 Column_618 Column_619 Column_620 Column_621 Column_622 Column_623 Column_624 Column_625 Column_626 Column_627 Column_628 Column_629 Column_630 Column_631 Column_632 Column_633 Column_634 Column_635 Column_636 Column_637 Column_638 Column_639 Column_640 Column_641 Column_642 Column_643 Column_644 Column_645 Column_646 Column_647 Column_648 Column_649 Column_650 Column_651 Column_652 Column_653 Column_654 Column_655 Column_656 Column_657 Column_658 Column_659 Column_660 Column_661 Column_662 Column_663 Column_664
feature_infos=[0:0.62508667677311414] [0:0.49117398124645173] [0:0.57841478434503557] [0:0.60863887363432956] [0:0.56298762304843408] [0:0.59398786721951458] [0:0.43370628684686113] [0:0.51693625045936809] [0:0.55448609587720643] [0:0.57301229604786286] [0:0.45597862478085671] [0:0.40073720874423296] [0:0.46956795247630873] [0:0.50341801654354379] [0:0.47528413673237646] [0:0.69397991913793633] [0:0.48695922231556504] [0:0.51990541082474406] [0:0.4717599985830106] [0:0.42043535623940137] [0:0.57924120223596443] [0:0.58330826979656858] [0:0.36815799815174882] [0:0.45000330247166259] [0:0.49547909053294659] [0:0.50599024074247301] [0:0.64115391697659518] [0:0.43485743556580525] [0:0.60980751358976837] [0:0.59571622950439962] [0:0.46868888944044679] [0:0.59995327639500295] [0:0.63988046023897971] [0:0.52224226591927569] [0:0.49547909053294659] [0:0.51681248724431061] [0:0.64191497032948475] [0:0.60761599494162466] [0:0.57665086021768963] [0:0.55240906468088202] [0:0.60535252021933783] [0:0.49023412078724005] [0:0.51518361791372913] [0:0.6650852937629782] [0:0.58324500048095795] [0:0.49319872377292495] [0:0.42053586787876174] [0:0.48834817617802917] [0:0.52224226591927569] [0:0.51804979211904545] [0:0.63925933856765749] [0:0.56376189885422168] [0:0.55100534918897448] [0:0.64033124416276488] [0:0.63859727483184192] [0:0.55121664678493143] [0:0.5916399653686687] [0:0.64772012686091995] [0:0.54167836070077979] [0:0.49772522997892532] [0:0.45311236215308209] [0:0.40073720874423296] [0:0.540563306653567] [0:0.62195217120296975] [0:0.63843979095012271] [0:0.62164531553434599] [0:0.47476641096170819] [0:0.46934475402223497] [0:0.56178529948368561] [0:0.51461535785086254] [0:0.36482278758402642] [0:0.40403754746655329] [0:0.54325541573910974] [0:0.5036660565216643] [0:0.62277197085940206] [0:0.49754592772404577] [0:0.54277528908612016] [0:0.55677625717090518] [0:0.42868440288840987] [0:0.5216082975757057] [0:0.41696315632314057] [0:0.37966383712544277] [0:0.4914277109315639] [0:0.52148824061763721] [0:0.59291101653212441] [0:0.65878116988181956] [0:0.54038075112912809] [0:0.63606833005596974] [0:0.46561617329572769] [0:0.49083215416620168] [0:0.55448609587720643] [0:0.60977522004811768] [0:0.45010925114699912] [0:0.63928303023969901] [0:0.55204347790507358] [0:0.53250616289506902] [0:0.57391306552300814] [0:0.44337541498866939] [0:0.64108779723403786] [0:0.63661170991732319] [0:0.68666204949565546] [0:0.47857204888617721] [0:0.69525449209894974] [0:0.49648025815770336] [0:0.49451417051939794] [0:0.61242064588288936] [0:0.55162860545114845] [0:0.55121664678493143] [0:0.55356605013210836] [0:0.52738460548085753] [0:0.59032133079791993] [0:0.58469743659210682] [0:0.67632524866445809] [0:0.56350640586361334] [0:0.49069918531444301] [0:0.47818155802188134] [0:0.62231298391875656] [0:0.51808801133940663] [0:0.52984447533623791] [0:0.63324382996864159] [0:0.49227043352618843] [0:0.51479889854768068] [0:0.52984447533623791] [0:0.66145736436235669] [0:0.51264032882550437] [0:0.49041059467468567] [0:0.63824729093322485] [0:0.44275416516907035] [0:0.50552716814091037] [0:0.35391674685036784] [0:0.62107003906684799] [0:0.66182940040842042] [0:0.49227043352618843] [0:0.63964741261200497] [0:0.72855282180085257] [0:0.49569482107492169] [0:0.75763087403856078] [0:0.56350640586361334] [0:0.64330810555681595] [0:0.47436720451246045] [0:0.5100073973788003] [0:0.48003772588854732] [0:0.66809644634237964] [0:0.62521070486782948] [0:0.59617124359744833] [0:0.49064818672767863] [0:0.49754914865258265] [0:0.51073526488832521] [0:0.49053816692968916] [0:0.51452978389095938] [0:0.55187593826375869] [0:0.5266185623247599] [0:0.60923418598336165] [0:0.61842080528880272] [0:0.4937038601682544] [0:0.47436386992735069] [0:0.47218605293665089] [0:0.49628318896453238] [0:0.43351053708298909] [0:0.55204347790507358] [0:0.53979394490706822] [0:0.59250904044948016] [0:0.45615878416825356] [0:0.57923092841846924] [0:0.43622409195980016] [0:0.51349091809602976] [0:0.64680641912208858] [0:0.39710783042842485] [0:0.53871417289324341] [0:0.5682550511888339] [0:0.54772925590079724] [0:0.63506969754842313] [0:0.37145646143188488] [0:0.68839694735283463] [0:0.63369557443554403] [0:0.52647307049455117] [0:0.43810797532888701] [0:0.74486962882011032] [0:0.55478201707844066] [0:0.53600923222004082] [0:0.50455766308515448] [0:0.54889845416722882] [0:0.65619905500267639] [0:0.42012389600432354] [0:0.46276376784935636] [0:0.51481162008531589] [0:0.58252805685429176] [0:0.46447390767772062] [0:0.59892372154528628] [0:0.51408621485680039] [0:0.61007108413894329] [0:0.54732472589282388] [0:0.58626541584053904] [0:0.57486242294104806] [0:0.72380648381645363] [0:0.53794271947162697] [0:0.54145965472486957] [0:0.61773244514396553] [0:0.62640792505101461] [0:0.59507948455213977] [0:0.47662521674035446] [0:0.48611474419148615] [0:0.46911879321212319] [0:0.69000302462037211] [0:0.4656566569101484] [0:0.60608186867486846] [0:0.51349091809602976] [0:0.50344968727227879] [0:0.59462224107435147] [0:0.49184610807085188] [0:0.43485743556580525] [0:0.65445649629053493] [0:0.57408975784618377] [0:0.58278127886005904] [0:0.73399486614423715] [0:0.74509293501308904] [0:0.46474693484940677] [0:0.48534668120493912] [0:0.45854310036499424] [0:0.44395805099350188] [0:0.50814238769941644] [0:0.69096432430968902] [0:0.68987266228936206] [0:0.55189414455915131] [0:0.53907189763341579] [0:0.55489824522460729] [0:0.64166733856663294] [0:0.54951960429813218] [0:0.68896566813246329] [0:0.61746709066450933] [0:0.41612077127774483] [0:0.47810798617692385] [0:0.51442735702568465] [0:0.42712455430114116] [0:0.5569971409671185] [0:0.56545420892336895] [0:0.40073720874423296] [0:0.46748419792566787] [0:0.53390257931559548] [0:0.5388429616218946] [0:0.4732565361121413] [0:0.55776737089743289] [0:0.60456341232795452] [0:0.54720772405912588] [0:0.48879223548348205] [0:0.63707843862273872] [0:0.59345244098586303] [0:0.5368242051777864] [0:0.45425287149583138] [0:0.6865549437200118] [0:0.63928303023969901] [0:0.48834817617802917] [0:0.55715149704392575] [0:0.6455065127868469] [0:0.44559068327477097] [0:0.70034148061082813] [0:0.62296352804877664] [0:0.56275226750178942] [0:0.49495924949708725] [0:0.53386812958394869] [0:0.50254168565902269] [0:0.55533442834944535] [0:0.48276110243872322] [0:0.48019670464783232] [0:0.60474893713052458] [0:0.57376076493212214] [0:0.52759093612313446] [0:0.57776118644719876] [0:0.5363143135081162] [0:0.59161841794799164] [0:0.54720772405912588] [0:0.54268310290755895] [0:0.57887348102608216] [0:0.60140958512480736] [0:0.57841478434503557] [0:0.38128379147833774] [0:0.4646966182349152] [0:0.63578184843082208] [0:0.44337541498866939] [0:0.35391674685036784] [0:0.55200214499678557] [0:0.47513593134062437] [0:0.49566750343168314] [0:0.41767690734007074] [0:0.71157343021845187] [0:0.63918669863313449] [0:0.40464170218014817] [0:0.5458462719622057] [0:0.4735812099055336] [0:0.5347039105618232] [0:0.48834817617802917] [0:0.55200214499678557] [0:0.61033724304930115] [0:0.54568001650491538] [0:0.59345244098586303] [0:0.43271774216979353] [0:0.42231320618564022] [0:0.54105075065131303] [0:0.41767690734007074] [0:0.6033949069531267] [0:0.48250698608159948] [0:0.52396235674772884] [0:0.69017340611071376] [0:0.57466060120530571] [0:0.5474201897136407] [0:0.68730791917110257] [0:0.60500792704071626] [0:0.47742935314746976] [0:0.49562757204081515] [0:0.4717599985830106] [0:0.32086784749406838] [0:0.59356651152098427] [0:0.59613792278441324] [0:0.68939093220301662] [0:0.63928303023969901] [0:0.46934475402223497] [0:0.6870920094017422] [0:0.53743139285559427] [0:0.49451417051939794] [0:0.51556832890302584] [0:0.48882755237323305] [0:0.48981125882469495] [0:0.53691056979735485] [0:0.43203902983879217] [0:0.53630861237937311] [0:0.48215929659736811] [0:0.4763379203174225] [0:0.53952213451086672] [0:0.45655113410239578] [0:0.69006111238729662] [0:0.49869613516843747] [0:0.53496631618589474] [0:0.42570173236848285] [0:0.68994899032375478] [0:0.45059718613865862] [0:0.56962333489190042] [0:0.56135042487970832] [0:0.58775846693812361] [0:0.44700432795116907] [0:0.39129547404508247] [0:0.55902102200814807] [0:0.53893167723427249] [0:0.68591549459439427] [0:0.72371972928817119] [0:0.64373718950818393] [0:0.59183548528836138] [0:0.75617908662574451] [0:0.48337642932247726] [0:0.63622183229285634] [0:0.63890384402906542] [0:0.69457464502696098] [0:0.63958123213843099] [0:0.58060093543073876] [0:0.49588194941792529] [0:0.54268310290755895] [0:0.46205517780340433] [0:0.48745189732272537] [0:0.50720104498193086] [0:0.57871551700062829] [0:0.6256830976656057] [0:0.49052777333824299] [0:0.60646794221937927] [0:0.47100401885796539] [0:0.5397032011788423] [0:0.55456883589916928] [0:0.48337642932247726] [0:0.59813215478482507] [0:0.60145495624125889] [0:0.60798555861572534] [0:0.64277589020350279] [0:0.53784237779716371] [0:0.39124245513035627] [0:0.64237828531420094] [0:0.51442735702568465] [0:0.55781289354172858] [0:0.43957575332008353] [0:0.66324124753486813] [0:0.40464170218014817] [0:0.53276022779027787] [0:0.51853236455955276] [0:0.43987736057784987] [0:0.68817786239901546] [0:0.48620343280918465] [0:0.49969246509242471] [0:0.47742935314746976] [0:0.50411717905799969] [0:0.55499406369047677] [0:0.64472198030167271] [0:0.57772186603659093] [0:0.50671976938151342] [0:0.40520799227739829] [0:0.46884388894515122] [0:0.64298472531769391] [0:0.53013202191832709] [0:0.52742671699717181] [0:0.36482278758402642] [0:0.44152287552585578] [0:0.56339511775550699] [0:0.65852990790722354] [0:0.50645820419552745] [0:0.56100246638864082] [0:0.64176393185615932] [0:0.64354023943205796] [0:0.66302092723991302] [0:0.46376173212795085] [0:0.72492826741887118] [0:0.51600987892395511] [0:0.52751449313460264] [0:0.49273878858249109] [0:0.59112619096229868] [0:0.47074260087334452] [0:0.61807251579222455] [0:0.64657836942199687] [0:0.49934656700152297] [0:0.51718160383263456] [0:0.58274268447566557] [0:0.53879851675266621] [0:0.63782372281636213] [0:0.58274268447566557] [0:0.57504373871670045] [0:0.73378175300851867] [0:0.5878234297683691] [0:0.63988046023897971] [0:0.67938526548030564] [0:0.56545420892336895] [0:0.53830967881220937] [0:0.47157648046205769] [0:0.70625725010100637] [0:0.82963933709094539] [0:0.65177211289983572] [0:0.46103534639555621] [0:0.61671301325048478] [0:0.59257126093928758] [0:0.51724174275458323] [0:0.5989806691185533] [0:0.51914434194787451] [0:0.51464849515779865] [0:0.6483347997534169] [0:0.41220043608629831] [0:0.51264032882550437] [0:0.60506095654830705] [0:0.63795360986222927] [0:0.55301874258950545] [0:0.58770707801180544] [0:0.49657338971303078] [0:0.68079799241008254] [0:0.3987819847236177] [0:0.46376676168187614] [0:0.64618424031859323] [0:0.62702329967855963] [0:0.58394205893790574] [0:0.57887348102608216] [0:0.3920731536460948] [0:0.45959135668269291] [0:0.48412513199893137] [0:0.49740837969458013] [0:0.60960716565296935] [0:0.49588194941792529] [0:0.64018072259502345] [0:0.43368992444699744] [0:0.52036790411753919] [0:0.63951377401772502] [0:0.69781717860405035] [0:0.55696219153726068] [0:0.52137018954916725] [0:0.6223233222359662] [0:0.54951960429813218] [0:0.64561177554008875] [0:0.66296975476523223] [0:0.63860818462963265] [0:0.45799232342047957] [0:0.64884567220681855] [0:0.5378149044677808] [0:0.42744324253259902] [0:0.73782769395495973] [0:0.59767478244623373] [0:0.4586686512751012] [0:0.49143725931413867] [0:0.46981319738638955] [0:0.52458675163458157] [0:0.62873826707254832] [0:0.50092903572074887] [0:0.50614900339752456] [0:0.49285903558858185] [0:0.5291979392863958] [0:0.42043535623940137] [0:0.5938602324396467] [0:0.69232503745760265] [0:0.41595089495344656] [0:0.68131214592831968] [0:0.51804647536336312] [0:0.52562114422199846] [0:0.52738460548085753] [0:0.48232111969424746] [0:0.39261156996210222] [0:0.44750538275246166] [0:0.40464170218014817] [0:0.46032243359663355] [0:0.51093615787428581] [0:0.61486650415024446] [0:0.47694276700030031] [0:0.53382529450556826] [0:0.59829078821013826] [0:0.69028587215052872] [0:0.4603713214180245] [0:0.65286105024575958] [0:0.64648239921972916] [0:0.62885440033988815] [0:0.87649964729012186] [0:0.40154998201696801] [0:0.61096767799608354] [0:0.50092903572074887] [0:0.46254005476114279] [0:0.67669115050056838] [0:0.3865729499059754] [0:0.40994712285482632] [0:0.39261156996210222] [0:0.42074710168402485] [0:0.63854196315133505] [0:0.49273878858249109] [0:0.44563822917572565] [0:0.6423122160550444] [0:0.49142011240489181] [0:0.53176609683523057] [0:0.68894751006687882] [0:0.69257242719706991] [0:0.63949818981939832] [0:0.56094656862332093] [0:0.57330969889805006] [0:0.56465551336994879] [0:0.52605693816902399] [0:0.45600382468393436] [0:0.57923092841846924] [0:0.41025737924260502] [0:0.43025601938669239] [0:0.3987819847236177] [0:0.7840278000502332] [0:0.44750538275246166] [0:0.64253255983084967] [0:0.55714081195971332] [0:0.59813215478482507] [0:0.63949818981939832] [0:0.50841025448352106] [0:0.52723472307576869] [0:0.55772338532742727] [0:0.50167255424732216] [0:0.60080981670465217] [0:0.62209735442614766] [0:0.64951343281937834] [0:0.68174736384284473] [0:0.72718781632999563] [0:0.47436720451246045] [0:0.44152287552585578] [0:0.46956795247630873] [0:0.67992667588481948] [0:0.48698119341058121] [0:0.50451045449760556] [0:0.58060655540528638] [0:0.46987154024286348] [0:0.3920731536460948] [0:0.5062965899759152] [0:0.38839371628036062] [0:0.44606568424575976] [0:0.50308877242018823] [0:0.53475584858119518] [0:0.70365938768706038] [0:0.49142011240489181] [0:0.54145965472486957] [0:0.63997341825158294] [0:0.32086784749406838] [0:0.64040073374497264] [0:0.63128083350962538] [0:0.56656149816550494] [0:0.41487705400534669] [0:0.47100224665324758] [0:0.56544280016059645] [0:0.58931810972048126] [0:0.62204081371795639] [0:0.52210312269374937] [0:0.5388429616218946] [0:0.57668207187036136] [0:0.63131400804346982] [0:0.59247768529620171] [0:0.49606451941466323] [0:0.4692539435267683] [0:0.55325987279754907] [0:0.74095109494616562] [0:0.50456686593180577] [0:0.57999763676745431] [0:0.65268327594903652] [0:0.47436386992735069] [0:0.62056923572662925] [0:0.48618417575345269] [0:0.43593357857455989] [0:0.41487705400534669] [0:0.60018339272293053] [0:0.55551465474595485] [0:0.69077398532228151] [0:0.49137193887528541] [0:0.53384521237556015] [0:0.58394205893790574] [0:0.50614900339752456] [0:0.53166676663617685] [0:0.51960627091452061] [0:0.57251245908372461] [0:0.54330572825542367] [0:0.5159515919286809] [0:0.6302275745231235] [0:0.51507898129519503] [0:0.58116729233848208] [0:0.63964741261200497] [0:0.43200820852330907] [0:0.64558064080853683] [0:0.50800392204011335] [0:0.62798380056182079] [0:0.49672068693338439] [0:0.56721640082213398] [0:0.56085510230072144] [0:0.45459173015710425] [0:0.70165608784203204] [0:0.62579330886744133] [0:0.54354597459170073] [0:0.82356879168554231] [0:0.70781611345653983] [0:0.615288073388922] [0:0.48611474419148615] [0:0.54743288053478845] [0:0.59112619096229868] [0:0.51777068099917567] [0:0.32086784749406838] [0:0.32086784749406838] [0:0.5417329914026715] [0:0.49890698466888717] [0:0.46376173212795085] [0:0.5160282250711784] [0:0.48877967222545254] [0:0.44417830220646976] [0:0.69268867096736608] [0:0.52038751723316279] [0:0.50644322478472914] [0:0.60669976297248585] [0:0.5682550511888339] [0:0.60534300163581878] [0:0.5969302450032915] [0:0.61071819044785225] [0:0.76541228121302685] [0:0.64277242684829583] [0:0.60794469655733363] [0:0.55973455817320794] [0:0.56977471095271559] [0:0.64535793980587097] [0:0.54996259181927598] [0:0.53654782203624651] [0:0.64034768857417357] [0:0.41309999481078685] [0:0.34733523453458526] [0:0.58567940079245173] [0:0.62797969676405085] [0:0.51601647110140225] [0:0.52485968633721891] [0:0.48042374926192566] [0:0.54590197785712258] [0:0.41107471704431547] [0:0.44152287552585578] [0:0.54911475666176102]
tree_sizes=3449 3483 3532 3518 3518 3558 3518 3549 3552 3534 3533 3555 3531 3530 3553 3520 3539 3583 3548 3538 3565 3523 3545 3555 3547 3536 3571 3534 3568 3552 3539 3536 3555 3544 3576 3590 3545 3535 3565 3550 3543 3601 3542 3545 3570 3543 3517 3557 3534 3569 3586 3532 3587 3590 3551 3557 3591 3540 3576 3566 3532 3540 3588 3522 3561 3582 3536 3598 3586 3529 3588 3563 3535 3571 3574 3538 3556 3561 3540 3550 3603 3545 3551 3591 3550 3598 3547 3550 3578 3600 3536 3560 3590 3549 3574 3593 3565 3562 3589 3545 3587 3607 3551 3593 3587 3551 3607 3541 3544 3594 3563 3553 3564 3534 3548 3578 3612 3543 3561 3556 3558 3601 3600 3551 3595 3597 3561 3603 3594 3537 3595 3605 3552 3596 3578 3549 3553 3619 3543 3579 3578 3558 3566 3600 3543 3573 3562 3545 3595 3601 3541 3615 3580 3536 3605 3602 3552 3609 3553 3534 3567 3606 3534 3601 3585 3549 3572 3571 3545 3558 3535 3550 3584 3541 3552 3568 3595 3532 3596 3548 3550 3578 3578 3559 3570 3583 3561 3591 3595 3552 3588 3549 3562 3583 3591 3558 3565 3597 3546 3555 3540 3560 3545 3553 3563 3585 3583 3552 3590 3584 3557 3573 3589 3556 3570 3578 3561 3568 3589 3546 3572 3605 3552 3577 3557 3563 3597 3600 3554 3580 3593 3573 3581 3561 3558 3588 3596 3563 3572 3601 3546 3601 3572 3565 3591 3552 3563 3567 3594 3561 3599 3591 3566 3570 3588 3543 3561 3591 3549 3568 3604 3555 3592 3607 3544 3545 3573 3554 3591 3610 3550 3568 3572 3547 3592 3535 3564 3579 3590 3566 3568 3542 3566 3566 3598 3557 3594 3585 3559 3556 3601 3556 3580 3589 3576 3566 3542 3578 3576 3590

Tree=0
num_leaves=31
num_cat=0
split_feature=264 536 49 43 426 554 8 50 402 336 108 238 326 529 162 620 134 131 231 303 120 606 152 232 121 405 200 397 21 259
split_gain=1782.32 1186.86 1058.35 1000.98 813.486 636.369 623.758 584.883 573.958 587.756 528.409 530.546 519.994 522.316 460.795 454.903 427.525 388.025 372.583 347.571 339.804 325.055 288.769 279.956 275.163 255.906 252.489 250.08 247.863 245.957
threshold=1.0000000180025095e-35 0.3335205593096266 1.0000000180025095e-35 0.24014483341893397 1.0000000180025095e-35 0.30218459839474504 0.28180688668500314 0.28247319259671383 1.0000000180025095e-35 0.39008025851439965 0.37410148196215132 1.0000000180025095e-35 0.36311371401515863 1.0000000180025095e-35 1.0000000180025095e-35 0.35107432539275213 0.3643099407217722 0.35262506139724642 1.0000000180025095e-35 1.0000000180025095e-35 0.41279939705893348 1.0000000180025095e-35 1.0000000180025095e-35 0.42488301669949285 0.27868546525404231 0.32367720412197837 0.40122101367501212 0.38493160991947856 1.0000000180025095e-35 0.30824859401917998
decision_type=2 2 2 2 2 2 2 2 2 2 2 2 2 2 2 2 2 2 2 2 2 2 2 2 2 2 2 2 2 2
left_child=1 2 3 4 5 6 7 8 9 10 11 12 13 14 15 16 17 18 19 20 21 22 23 24 25 26 27 28 -1 -27
right_child=-2 -3 -4 -5 -6 -7 -8 -9 -10 -11 -12 -13 -14 -15 -16 -17 -18 -19 -20 -21 -22 -23 -24 -25 -26 29 -28 -29 -30 -31
leaf_value=-1.5497724819807097 -1.3616803580530452 -1.3748473831570649 -1.3983686672014906 -1.3925585402642422 -1.3884662785054567 -1.4059597970282289 -1.4156378316417246 -1.4321682910105848 -1.453826873984835 -1.3630495801236928 -1.3830972260415908 -1.3601419062882725 -1.4111225280713808 -1.3613167239995536 -1.3687846735273139 -1.4191109117962573 -1.4203006752969685 -1.426776098349988 -1.4053389089113861 -1.363834190523727 -1.3639427871188874 -1.3621823791552341 -1.3601419062882725 -1.3764656892239655 -1.4542951542923586 -1.4160189123782001 -1.3702117723849663 -1.3655264874649768 -1.3681081359743557 -1.5515738213173271
leaf_weight=6655.8359346389771 195.00123882293701 149.60412502288818 184.42577481269836 152.69938278198242 112.9769082069397 113.49278450012207 127.93732070922852 159.66371273994446 247.10474443435669 51.587629318237305 58.809897422790527 43.849484920501709 84.345773935317993 42.559794187545776 40.496289014816284 79.702887296676636 74.802062511444092 74.286186218261719 49.782062292098999 27.083505392074585 26.309690952301025 24.50412392616272 21.150928020477295 24.50412392616272 81.250516176223755 72.480619192123413 19.861237287521362 18.57154655456543 18.829484701156616 62.163093328475952
leaf_count=25804 756 580 715 592 438 440 496 619 958 200 228 170 327 165 157 309 290 288 193 105 102 95 82 95 315 281 77 72 73 241
internal_value=-1.51122 -1.51449 -1.51688 -1.51943 -1.52173 -1.52354 -1.52517 -1.52691 -1.52883 -1.53125 -1.53239 -1.53356 -1.53457 -1.53597 -1.53698 -1.53791 -1.53922 -1.54046 -1.54165 -1.54261 -1.5433 -1.54397 -1.54461 -1.54517 -1.54577 -1.54685 -1.54822 -1.54875 -1.54926 -1.4786
internal_weight=0 8900.67 8751.07 8566.64 8413.94 8300.97 8187.47 8059.54 7899.87 7652.77 7601.18 7542.37 7498.52 7414.17 7371.61 7331.12 7251.42 7176.61 7102.33 7052.54 7025.46 6999.15 6974.65 6953.5 6928.99 6847.74 6713.1 6693.24 6674.67 134.644
internal_count=35263 34507 33927 33212 32620 32182 31742 31246 30627 29669 29469 29241 29071 28744 28579 28422 28113 27823 27535 27342 27237 27135 27040 26958 26863 26548 26026 25949 25877 522
is_linear=0
shrinkage=1


Tree=1
num_leaves=31
num_cat=0
split_feature=71 69 84 393 73 119 477 394 378 539 530 266 615 85 460 174 189 423 415 95 570 203 16 10 607 409 483 262 59 172
split_gain=921.295 724.987 698.396 535.693 495.495 476.007 512.771 498.505 393.85 347.179 333.513 342.262 324.31 324.639 306.978 288.286 265.849 275.386 267.838 259.184 265.041 265.479 272.263 265.838 269.732 266.291 252.862 227.629 224.185 234.011
threshold=0.21351337507988535 1.0000000180025095e-35 1.0000000180025095e-35 1.0000000180025095e-35 0.30558506301982419 0.2604158606849199 0.2890818444281249 0.26723433635082716 0.33543983247639614 0.19717281053009519 0.39821390306959209 0.28907567118714261 0.39068740793511564 0.39141138589224539 0.32784596751089107 0.30581929549830805 0.26007138962808712 0.3625341783525653 0.31912152507305896 0.32628185694221495 0.43070361897069592 1.0000000180025095e-35 0.35922353162437487 1.0000000180025095e-35 0.38354644384198383 0.41180773626665379 0.36756022799103477 0.39377639799253872 0.41350110932528833 0.23873509246074753
decision_type=2 2 2 2 2 2 2 2 2 2 2 2 2 2 2 2 2 2 2 2 2 2 2 2 2 2 2 2 2 2
left_child=1 2 3 4 5 6 7 8 9 10 11 12 13 14 15 16 17 18 19 20 21 22 23 24 25 26 28 -2 29 -1
right_child=27 -3 -4 -5 -6 -7 -8 -9 -10 -11 -12 -13 -14 -15 -16 -17 -18 -19 -20 -21 -22 -23 -24 -25 -26 -27 -28 -29 -30 -31
leaf_value=-0.99952397837208218 -0.91228148477420024 -1.0171555935408818 -1.0055738254278106 -1.017228365761667 -0.88684293756722843 -0.90838619876355453 -0.89867560359412257 -0.89077519651277492 -0.892678491133713 -0.93345979542836843 -0.89535104738706506 -0.89046475501707389 -0.89204794468077886 -0.8976791029832083 -0.914500452638776 -0.89552778010267109 -0.92714266485746 -0.91832250293965445 -0.91691976943333686 -0.88328356524582852 -0.89597760989648478 -0.92195064916832525 -0.88623592905608106 -0.87597748521769181 -0.89775916305858527 -0.9183951670627295 -0.90448683725409051 -1.0163286786244443 -0.88575639233227477 -0.95918005868880052
leaf_weight=4945.1019158959389 970.96739837527275 687.07536283135414 930.96764773130417 396.10372540354729 239.29054367542267 430.43979454040527 306.19278147816658 223.00745934247971 176.6360670030117 661.94277614355087 141.9460177719593 124.24701306223869 118.22935146093369 131.32661494612694 190.79527077078819 102.30024722218513 228.6711408495903 165.30870398879051 146.54775899648666 61.592536389827728 79.999501287937164 150.08755993843079 63.362436860799789 50.265173375606537 75.751740157604218 117.87537136673927 77.167660534381866 55.57487478852272 46.01741224527359 387.60820314288139
leaf_count=13970 2743 1941 2630 1119 676 1216 865 630 499 1870 401 351 334 371 539 289 646 467 414 174 226 424 179 142 214 333 218 157 130 1095
internal_value=-0.963324 -0.967359 -0.964182 -0.960264 -0.957875 -0.959722 -0.962241 -0.96454 -0.966536 -0.968153 -0.971254 -0.972738 -0.97417 -0.975553 -0.977038 -0.978819 -0.980111 -0.982014 -0.983712 -0.985328 -0.986377 -0.9876 -0.98931 -0.990455 -0.991474 -0.992748 -0.994354 -0.917914 -0.995643 -0.996592
internal_weight=0 11455.9 10768.8 9837.81 9441.71 9202.42 8771.98 8465.79 8242.78 8066.14 7404.2 7262.26 7138.01 7019.78 6888.45 6697.66 6595.36 6366.69 6201.38 6054.83 5993.24 5913.24 5763.15 5699.79 5649.52 5573.77 5455.9 1026.54 5378.73 5332.71
internal_count=35263 32363 30422 27792 26673 25997 24781 23916 23286 22787 20917 20516 20165 19831 19460 18921 18632 17986 17519 17105 16931 16705 16281 16102 15960 15746 15413 2900 15195 15065
is_linear=0
shrinkage=1


Tree=2
num_leaves=31
num_cat=0
split_feature=253 84 430 80 393 454 300 652 581 396 223 587 661 193 414 293 564 108 622 147 580 662 512 539 141 259 136 660 0 545
split_gain=975.193 954.822 561.425 491.986 468.503 467.39 438.436 388.573 322.95 283.551 289.869 292.812 296.635 300.642 288.785 286.781 280.71 276.116 268.063 262.864 258.41 247.974 247.326 244.223 230.16 237.013 234.865 231.684 228.577 225.482
threshold=1.0000000180025095e-35 1.0000000180025095e-35 1.0000000180025095e-35 0.29109772135774814 1.0000000180025095e-35 1.0000000180025095e-35 1.0000000180025095e-35 1.0000000180025095e-35 1.0000000180025095e-35 0.24210423023704061 0.33250138103254373 1.0000000180025095e-35 0.36624623645913607 1.0000000180025095e-35 0.29909629000262167 1.0000000180025095e-35 0.33309985752513721 0.37410148196215132 1.0000000180025095e-35 1.0000000180025095e-35 1.0000000180025095e-35 0.30437261452949088 1.0000000180025095e-35 0.42129933550649418 1.0000000180025095e-35 1.0000000180025095e-35 1.0000000180025095e-35 0.26211680298124967 1.0000000180025095e-35 0.39907953636935528
decision_type=2 2 2 2 2 2 2 2 2 2 2 2 2 2 2 2 2 2 2 2 2 2 2 2 2 2 2 2 2 2
left_child=1 2 3 4 5 6 7 8 9 10 11 12 13 14 15 16 18 -3 19 20 21 22 24 -9 25 26 27 28 29 -1
right_child=-2 17 -4 -5 -6 -7 -8 23 -10 -11 -12 -13 -14 -15 -16 -17 -18 -19 -20 -21 -22 -23 -24 -25 -26 -27 -28 -29 -30 -31
leaf_value=-0.95383512896914446 -0.83845260442443936 -0.86824890656393339 -0.83930607396547219 -0.845234054429441 -0.87723951306495862 -0.83815840916686946 -0.83858008903605308 -0.84055762221567254 -0.85171240496205514 -0.89761098970785025 -0.86225080527484932 -0.84557997486450009 -0.84863865361436031 -0.85096060999528222 -0.84426762483260198 -0.83815840916686946 -0.84522208210243155 -0.96217463512884449 -0.86431153296836016 -0.83815840916686946 -0.83906200888654858 -0.84261848470631096 -0.83912475886708182 -0.97495421757658518 -0.8847841547023082 -0.88571749314693871 -0.84886259046152901 -0.85452950997046628 -0.88076593210522081 -0.8414981137308033
leaf_weight=8180.1247616410255 339.91030591726303 880.67670169472694 174.2669115960598 169.59583973884583 390.21415668725967 128.27481946349144 118.5733625292778 166.7213339805603 110.66847169399261 424.70822578668594 120.36992862820625 80.845474451780319 85.875859528779984 89.828304946422577 73.659210056066513 63.957753121852875 70.784704297780991 85.875859528779984 101.32632797956467 56.052862286567688 55.334235846996307 56.052862286567688 51.741103649139404 42.398959934711456 138.33558961749077 141.92872181534767 56.052862286567688 61.083247363567352 110.30915847420692 44.914152473211288
leaf_count=22766 946 2451 485 472 1086 357 330 464 308 1182 335 225 239 250 205 178 197 239 282 156 154 156 144 118 385 395 156 170 307 125
internal_value=-0.921966 -0.924302 -0.92836 -0.929747 -0.931047 -0.933023 -0.934181 -0.935273 -0.93666 -0.937594 -0.939356 -0.940331 -0.941143 -0.941992 -0.942875 -0.943666 -0.944405 -0.876594 -0.945181 -0.946096 -0.946776 -0.94745 -0.948119 -0.867806 -0.948765 -0.949795 -0.950871 -0.951552 -0.952263 -0.953222
internal_weight=0 12330.6 11364 11189.7 11020.1 10629.9 10501.6 10383.1 10174 10063.3 9638.58 9518.21 9437.36 9351.49 9261.66 9188 9124.04 966.553 9053.26 8951.93 8895.88 8840.54 8784.49 209.12 8732.75 8594.41 8452.48 8396.43 8335.35 8225.04
internal_count=35263 34317 31627 31142 30670 29584 29227 28897 28315 28007 26825 26490 26265 26026 25776 25571 25393 2690 25196 24914 24758 24604 24448 582 24304 23919 23524 23368 23198 22891
is_linear=0
shrinkage=1


Tree=3
num_leaves=31
num_cat=0
split_feature=264 79 49 536 43 112 426 554 8 50 336 108 238 326 529 162 134 231 645 120 606 624 152 448 232 2 405 259 659 128
split_gain=1490.45 1040.5 904.837 913.021 897.329 734.055 740.427 586.04 581.951 537.258 511.451 462.703 466.132 469.435 463.23 416.656 391.34 342.013 301.793 301.364 293.515 281.103 260.116 256.169 252.947 242.134 234.423 260.026 226.071 220.644
threshold=1.0000000180025095e-35 0.2823717212689234 1.0000000180025095e-35 0.34037657214907518 0.30933070229687254 1.0000000180025095e-35 1.0000000180025095e-35 0.30218459839474504 0.23429919357912293 0.28247319259671383 1.0000000180025095e-35 0.37410148196215132 1.0000000180025095e-35 0.36311371401515863 1.0000000180025095e-35 1.0000000180025095e-35 0.3643099407217722 1.0000000180025095e-35 0.46536495320462462 0.41279939705893348 1.0000000180025095e-35 0.45916040755691417 1.0000000180025095e-35 1.0000000180025095e-35 0.42488301669949285 1.0000000180025095e-35 1.0000000180025095e-35 1.0000000180025095e-35 1.0000000180025095e-35 0.40807515462305316
decision_type=2 2 2 2 2 2 2 2 2 2 2 2 2 2 2 2 2 2 2 2 2 2 2 2 2 2 2 2 2 2
left_child=1 2 3 4 5 6 7 8 9 10 11 12 13 14 15 16 17 18 19 20 21 22 23 24 25 26 29 -28 -4 -1
right_child=-2 -3 28 -5 -6 -7 -8 -9 -10 -11 -12 -13 -14 -15 -16 -17 -18 -19 -20 -21 -22 -23 -24 -25 -26 -27 27 -29 -30 -31
leaf_value=-0.036608930993877291 0.13021872276562318 0.13481008539432346 0.12245511343268829 0.12008914859106319 0.11054004211056334 0.15374163242369587 0.10849750156016491 0.095460902380363616 0.083655118338672119 0.071441538047754535 0.12688148060568605 0.11179556815678889 0.13232379727535248 0.08941924095493263 0.13214305365834339 0.12780647719098059 0.083369991367726076 0.095697705927428461 0.12959221218049605 0.13027020477756995 0.13404789270343961 0.081308792273185673 0.13348924296584075 0.14927676859926647 0.1186901330354744 0.1407927500568168 0.082371686178389941 -0.040610067768190816 -0.027246277615836447 0.069446761424581518
leaf_weight=6705.5972460061312 214.45920741558075 134.54694578051567 169.1962411403656 137.40954315662384 151.99224543571472 66.218847572803497 122.70200854539871 117.7699753344059 141.3298441618681 161.80252012610435 58.314380019903183 64.299023449420929 48.05339726805687 90.283594906330109 46.431522309780121 43.608444690704346 79.14599347114563 55.079263150691986 29.732186943292618 29.196986645460129 26.933561533689499 54.964390516281128 23.605759471654892 19.271720796823502 27.277971655130386 19.786854952573776 89.402637273073196 82.775706365704536 29.63676592707634 49.402849972248077
leaf_count=26563 756 500 608 490 550 260 439 432 521 602 206 228 170 327 165 157 293 199 110 104 97 207 84 75 97 73 334 328 107 181
internal_value=0 -0.0031767 -0.00530062 -0.0077549 -0.00984497 -0.0120621 -0.0134032 -0.015258 -0.0168989 -0.0187197 -0.0206284 -0.0217625 -0.0229044 -0.0239026 -0.0252885 -0.026285 -0.0272065 -0.0284198 -0.0293749 -0.0300379 -0.0306972 -0.0313247 -0.0322069 -0.0327662 -0.0332692 -0.0338659 -0.0343648 0.0232475 0.100142 -0.0358333
internal_weight=0 8875.77 8741.22 8542.39 8404.98 8252.99 8186.77 8064.07 7946.3 7804.97 7643.16 7584.85 7520.55 7472.5 7382.21 7335.78 7292.17 7213.03 7157.95 7128.22 7099.02 7072.09 7017.12 6993.51 6974.24 6946.97 6927.18 172.178 198.833 6755
internal_count=35263 34507 34007 33292 32802 32252 31992 31553 31121 30600 29998 29792 29564 29394 29067 28902 28745 28452 28253 28143 28039 27942 27735 27651 27576 27479 27406 662 715 26744
is_linear=0
shrinkage=0.05


Tree=4
num_leaves=31
num_cat=0
split_feature=71 84 396 393 220 390 539 491 530 573 167 85 10 460 174 119 233 643 189 423 415 23 570 95 262 438 5 112 269 431
split_gain=820.488 559.463 509.78 471.464 412.693 388.355 379.636 307.254 279.097 283.41 273.898 273.872 257.103 264.985 259.628 269.691 264.05 259.887 274.6 277.834 269.638 269.042 275.256 268.029 208.542 208.176 190.442 169.782 167.71 165.361
threshold=0.21351337507988535 1.0000000180025095e-35 1.0000000180025095e-35 1.0000000180025095e-35 0.2268997855174292 0.22756349050209476 0.19825011670445766 0.34093746110511469 0.39821390306959209 0.34377345348738397 0.31046234103624565 0.39141138589224539 1.0000000180025095e-35 0.32784596751089107 0.30581929549830805 0.2604158606849199 0.33417692677839189 0.49247970767897481 0.24079070619852352 0.3625341783525653 0.31912152507305896 0.32383512439124623 0.43070361897069592 0.32628185694221495 0.39377639799253872 0.32421236200117182 0.32777276051914978 0.47479509814705573 0.37054367733604826 0.35987756708070429
decision_type=2 2 2 2 2 2 2 2 2 2 2 2 2 2 2 2 2 2 2 2 2 2 2 2 2 2 2 2 2 2
left_child=1 2 3 4 5 6 7 8 9 10 11 12 13 14 15 16 17 18 19 20 21 22 23 25 27 -1 29 -2 -15 -3
right_child=24 26 -4 -5 -6 -7 -8 -9 -10 -11 -12 -13 -14 28 -16 -17 -18 -19 -20 -21 -22 -23 -24 -25 -26 -27 -28 -29 -30 -31
leaf_value=-0.030176706916612075 0.051963335788685151 -0.049153020704935754 -0.052186742248716812 -0.05215752810949828 0.052516278064349053 0.046657421923198217 0.031970194255629858 0.059194993793190015 0.063315866194035147 0.069605584303225873 0.052189648094202637 0.06139188490091 0.081502372993786737 0.067595800142314019 0.063806229335270165 0.037548889837376455 0.067210271814007905 0.069332289400276498 0.024168060279602714 0.042101114023535335 0.0432720068554453 0.04140011352137677 0.064887717128125494 0.074478943739057724 -0.052208820965497282 0.069099683765299832 0.067879810004475433 -0.055592788284626493 -0.054125388170509325 0.081121193226891639
leaf_weight=5371.7423375844955 948.42672693729401 873.57456383109093 456.77942663431168 388.80479335784912 419.27195256948471 458.41587135195732 813.99046343564987 188.48572513461113 144.95152536034584 119.70633101463318 184.71902924776077 133.89528793096542 74.689010143280029 159.130819439888 107.28888890147209 239.33856716752052 92.901228487491608 84.676891505718231 350.72913703322411 167.77248173952103 148.88834801316261 149.09092530608177 80.914813637733459 63.059802502393723 55.031111359596252 53.329644769430161 38.614116013050079 38.167753785848618 34.419633328914642 25.057583600282669
leaf_count=15328 2637 2516 1318 1124 1165 1275 2277 522 401 331 515 371 206 442 297 666 257 236 985 467 414 419 226 174 157 151 111 106 97 72
internal_value=0 -0.00383656 -0.000528724 0.0018238 0.00400068 0.00179499 -0.000551695 -0.00388168 -0.00541353 -0.00672157 -0.00794037 -0.00945943 -0.0107811 -0.0117514 -0.0133677 -0.0145849 -0.0164861 -0.0176878 -0.0188417 -0.0213414 -0.0231556 -0.0248852 -0.0266598 -0.0280095 0.0425186 -0.0292008 -0.0408484 0.0478024 0.0459498 -0.0455204
internal_weight=0 11424.2 10487 10030.2 9641.41 9222.14 8763.72 7949.73 7761.24 7616.29 7496.59 7311.87 7177.97 7103.28 6909.73 6802.44 6563.11 6470.2 6385.53 6034.8 5867.03 5718.14 5569.05 5488.13 1041.63 5425.07 937.246 986.594 193.55 898.632
internal_count=35263 32363 29664 28346 27222 26057 24782 22505 21983 21582 21251 20736 20365 20159 19620 19323 18657 18400 18164 17179 16712 16298 15879 15653 2900 15479 2699 2743 539 2588
is_linear=0
shrinkage=0.05


Tree=5
num_leaves=31
num_cat=0
split_feature=253 84 46 430 80 652 508 393 454 300 429 581 223 587 661 414 396 293 193 108 622 355 662 428 512 141 644 580 136 660
split_gain=873.145 851.201 590.4 524.606 456.623 427.925 419.626 407.125 415.126 400.519 399.865 297.088 279.112 277.927 280.369 269.568 276.094 275.083 269.754 244.346 240.396 238.488 235.43 236.717 235.749 230.095 232.418 226.665 226.648 227.363
threshold=1.0000000180025095e-35 1.0000000180025095e-35 1.0000000180025095e-35 1.0000000180025095e-35 0.29109772135774814 1.0000000180025095e-35 1.0000000180025095e-35 1.0000000180025095e-35 0.30212515192086936 0.31503945406608808 1.0000000180025095e-35 1.0000000180025095e-35 0.33250138103254373 1.0000000180025095e-35 0.36624623645913607 0.29909629000262167 0.24210423023704061 1.0000000180025095e-35 1.0000000180025095e-35 0.37410148196215132 1.0000000180025095e-35 0.3477891715912832 0.30437261452949088 0.40993933732992138 1.0000000180025095e-35 1.0000000180025095e-35 0.44034773447216408 1.0000000180025095e-35 1.0000000180025095e-35 0.26211680298124967
decision_type=2 2 2 2 2 2 2 2 2 2 2 2 2 2 2 2 2 2 2 2 2 2 2 2 2 2 2 2 2 2
left_child=1 2 3 4 5 6 7 8 9 10 11 12 13 14 15 16 17 18 20 -3 22 -7 23 24 25 26 27 28 29 -1
right_child=-2 19 -4 -5 -6 21 -8 -9 -10 -11 -12 -13 -14 -15 -16 -17 -18 -19 -20 -21 -22 -23 -24 -25 -26 -27 -28 -29 -30 -31
leaf_value=-0.03235986803667678 0.07824876415329568 0.050208693920128271 0.081723280732056688 0.077696837796552481 0.071661456492554745 0.07684275136233959 0.081153903479560335 0.03916157212327083 0.078335002164952386 0.078143896130525359 0.082141018263506393 0.065727870578734957 0.05626697912745459 0.071658552297101552 0.068471379130395679 0.072965569464261762 0.018468474388318688 0.078203501854572671 0.065084575400544784 -0.038650590466576019 0.052620376077092405 -0.051816522945914927 0.074693788711328243 0.068373656203418273 0.077384675519051205 0.035026762819760818 0.081611034359007836 0.078166685530866628 0.068334694836159865 0.063759984706201242
leaf_weight=8081.9150345921516 346.61168813705444 893.97489207983017 188.25617253780365 177.52556079626083 172.90928861498833 206.47940531373024 120.09759396314621 363.19896060228348 118.43138992786407 112.09943270683289 100.85696503520012 104.97488060593605 122.11291015148163 82.32806134223938 87.507548749446869 74.999676913022995 399.12728783488274 65.295559287071228 82.679545700550079 84.693412452936172 96.989777147769928 43.629131734371185 57.052123993635178 64.281497478485107 52.800075441598892 139.74778687953949 46.657660126686096 47.886377155780792 57.101736754179001 61.994478851556778
leaf_count=22708 946 2451 520 485 472 564 333 998 323 306 279 288 335 225 239 205 1102 178 226 239 266 123 156 179 144 385 131 131 156 170
internal_value=0 -0.00221909 -0.00608385 -0.00756762 -0.0089483 -0.01024 -0.0117739 -0.0128449 -0.0147231 -0.0158321 -0.0169041 -0.0179313 -0.0188441 -0.0198098 -0.0206095 -0.0214452 -0.0222104 -0.024044 -0.0248036 0.0425189 -0.0256572 0.0543993 -0.0265391 -0.0272144 -0.0279383 -0.0285976 -0.0296694 -0.0302988 -0.0309321 -0.0316282
internal_weight=0 12307.6 11328.9 11140.7 10963.2 10790.2 10540.1 10420 10056.8 9938.41 9826.31 9725.45 9620.48 9498.36 9416.04 9328.53 9253.53 8854.4 8789.11 978.668 8706.43 250.109 8609.44 8552.38 8488.1 8435.3 8295.56 8248.9 8201.01 8143.91
internal_count=35263 34317 31627 31107 30622 30150 29463 29130 28132 27809 27503 27224 26936 26601 26376 26137 25932 24830 24652 2690 24426 687 24160 24004 23825 23681 23296 23165 23034 22878
is_linear=0
shrinkage=0.05


Tree=6
num_leaves=31
num_cat=0
split_feature=264 79 49 536 43 426 112 554 90 50 336 620 238 326 529 162 131 134 231 303 132 624 606 405 152 232 448 200 397 21
split_gain=1274.34 894.823 786.456 799.563 799.303 639.579 640.734 533.03 530.949 495.822 448.184 448.74 412.75 407.854 411.613 371.189 372.554 376.61 299.53 280.552 266.232 258.195 259.719 236.5 233.573 228.012 225.61 221.948 221.721 219.951
threshold=1.0000000180025095e-35 0.2823717212689234 0.29748723801692928 0.33486018651001409 0.24014483341893397 1.0000000180025095e-35 1.0000000180025095e-35 0.30218459839474504 0.28180688668500314 0.28247319259671383 0.38442431120387516 0.35107432539275213 1.0000000180025095e-35 0.36311371401515863 1.0000000180025095e-35 1.0000000180025095e-35 0.35262506139724642 0.3643099407217722 1.0000000180025095e-35 1.0000000180025095e-35 0.41279939705893348 0.45916040755691417 1.0000000180025095e-35 0.32367720412197837 1.0000000180025095e-35 0.42488301669949285 1.0000000180025095e-35 0.40122101367501212 0.38493160991947856 1.0000000180025095e-35
decision_type=2 2 2 2 2 2 2 2 2 2 2 2 2 2 2 2 2 2 2 2 2 2 2 2 2 2 2 2 2 2
left_child=1 2 3 4 5 6 7 8 9 10 11 12 13 14 15 16 17 18 19 20 21 22 23 24 25 26 27 28 29 -1
right_child=-2 -3 -4 -5 -6 -7 -8 -9 -10 -11 -12 -13 -14 -15 -16 -17 -18 -19 -20 -21 -22 -23 -24 -25 -26 -27 -28 -29 -30 -31
leaf_value=-0.037795363880079015 0.11595021460382299 0.12001119334309103 0.09042342050132407 0.10703680617083144 0.097287893344415455 0.098275496361291848 0.13399432671189465 0.088211661503422745 0.079968531831357256 0.066733822751018149 0.11406645884254391 0.090226157012431807 0.11820534394301585 0.080310574063455098 0.11885919113402343 0.11589208078880209 0.081311036268377157 0.077737528203587591 0.085122943744082247 0.11930103925600946 0.11543722233705429 0.07388405821380975 0.11759375239769697 0.031130902133941037 0.11994156611485476 0.10566329596793622 0.13095710058953344 0.12319035760701856 0.12845648057865502 0.12619169964285135
leaf_weight=6491.6458022147417 230.72701114416122 145.21627762913704 210.09471717476845 149.66526797413826 171.41678130626678 129.84053656458855 72.874886631965637 123.29350581765175 139.89531788229942 167.60920336842537 61.629364401102066 89.078763395547867 51.628769904375076 93.114851653575897 49.379613995552063 45.800948649644852 78.655590429902077 83.045191794633865 56.658013969659805 31.193260222673416 30.903924286365509 57.47215273976326 28.684321165084839 140.01019084453583 24.379851162433624 28.641238868236542 20.239932119846344 21.758861899375916 20.242540657520294 20.5124192237854
leaf_count=26351 756 500 711 501 588 438 260 432 491 602 202 335 170 319 164 155 297 295 193 105 102 205 95 526 81 95 72 77 72 73
internal_value=0 -0.00308138 -0.0051385 -0.00750628 -0.00956438 -0.0118095 -0.0135899 -0.0149418 -0.0165656 -0.0183213 -0.0202158 -0.0213247 -0.0226723 -0.0236656 -0.0250048 -0.0259943 -0.0269052 -0.0281116 -0.0293723 -0.0303104 -0.0309882 -0.0316485 -0.032541 -0.0331773 -0.0345359 -0.0351062 -0.0357195 -0.0362342 -0.0367652 -0.0372788
internal_weight=0 8834.58 8689.37 8479.27 8329.61 8158.19 8028.35 7955.47 7832.18 7692.28 7524.68 7463.05 7373.97 7322.34 7229.22 7179.84 7134.04 7055.39 6972.34 6915.68 6884.49 6853.59 6796.12 6767.43 6627.42 6603.04 6574.4 6554.16 6532.4 6512.16
internal_count=35263 34507 34007 33296 32795 32207 31769 31509 31077 30586 29984 29782 29447 29277 28958 28794 28639 28342 28047 27854 27749 27647 27442 27347 26821 26740 26645 26573 26496 26424
is_linear=0
shrinkage=0.05


Tree=7
num_leaves=31
num_cat=0
split_feature=71 69 84 393 73 477 220 378 230 95 390 264 16 10 45 253 211 530 262 615 85 5 561 174 460 643 190 194 438 423
split_gain=733.476 626.22 573.473 446.934 399.124 383.461 409.874 298.941 239.922 240.108 263.723 255.622 253.001 261.991 239.597 237.431 192.345 193.136 192.288 187.266 182.449 179.111 175.91 166.622 172.362 170.714 177.749 179.347 186.045 168.848
threshold=0.21351337507988535 1.0000000180025095e-35 1.0000000180025095e-35 1.0000000180025095e-35 0.30558506301982419 0.2890818444281249 0.2268997855174292 0.33543983247639614 0.33670272468104845 0.32628185694221495 1.0000000180025095e-35 0.30577620042484804 0.35922353162437487 1.0000000180025095e-35 1.0000000180025095e-35 1.0000000180025095e-35 0.32298659547033565 0.39821390306959209 0.39377639799253872 0.39068740793511564 0.39141138589224539 0.32777276051914978 0.25696561708232718 0.30581929549830805 0.32784596751089107 0.49247970767897481 0.33878448313834281 1.0000000180025095e-35 0.3256387130886606 0.3625341783525653
decision_type=2 2 2 2 2 2 2 2 2 2 2 2 2 2 2 2 2 2 2 2 2 2 2 2 2 2 2 2 2 2
left_child=1 2 3 4 5 6 7 8 9 10 11 14 13 22 15 16 17 19 -2 20 23 -4 -12 24 25 26 27 28 29 -1
right_child=18 -3 21 -5 -6 -7 -8 -9 -10 -11 12 -13 -14 -15 -16 -17 -18 -19 -20 -21 -22 -23 -24 -25 -26 -27 -28 -29 -30 -31
leaf_value=-0.010918328584226136 0.04494736668669027 -0.050977200621386942 -0.043842005905019618 -0.050626826439813505 0.067444571135854198 0.057316012005664142 0.049164100215077243 0.062051365643834004 0.063686210632451584 0.069522573450365679 -0.043232471658975861 -0.051266961064566775 0.06813354092053521 0.075950618726200403 -0.051076512795453791 -0.050992800215590044 0.064675868489844829 0.059691913127696609 -0.051511727563444569 0.062828269248181343 0.057611919518389246 0.065649240230590628 0.056883736613912141 0.060223556412283157 0.044092220795386064 0.066378898726611832 0.051017446113549358 0.050223795708489574 0.070595785101025696 0.039897890364243377
leaf_weight=4798.815650165081 998.5933643579483 658.76884225010872 856.03609693050385 377.22613760828972 248.16343352198601 315.91966077685356 425.10735616087914 183.03834331035614 134.48952823877335 110.59950733184814 961.63734266161919 243.89614456892014 65.680806994438171 52.454350650310516 214.96605622768402 200.35041841864586 129.20407232642174 146.76798266172409 54.485064506530762 122.44947290420532 135.87179628014565 39.055289953947067 45.973120093345642 108.95940583944321 194.05166560411453 85.120633006095886 137.96392783522606 135.75736182928085 74.160233318805695 169.23217344284058
leaf_count=13676 2743 1941 2519 1119 676 865 1165 499 369 302 2789 715 179 142 619 588 359 400 157 334 371 111 126 297 535 233 384 379 205 466
internal_value=0 -0.00366116 -0.000751564 0.00274143 0.0048739 0.00318472 0.00125816 -0.0011515 -0.00255063 -0.00364582 -0.00465443 -0.000992249 -0.027093 -0.0329932 0.000850614 0.00258428 0.00430496 0.00302816 0.0399567 0.00163334 0.00035023 -0.0390646 -0.0386646 -0.00101375 -0.00220629 -0.00386973 -0.00499458 -0.00648699 -0.00801388 -0.00918732
internal_weight=0 11371.7 10712.9 9817.86 9440.63 9192.47 8876.55 8451.44 8268.4 8133.91 8023.31 6897.57 1125.75 1060.06 6653.67 6438.7 6238.35 6109.15 1053.08 5962.38 5839.93 895.091 1007.61 5704.06 5595.1 5401.05 5315.93 5177.97 5042.21 4968.05
internal_count=35263 32363 30422 27792 26673 25997 25132 23967 23468 23099 22797 19561 3236 3057 18846 18227 17639 17280 2900 16880 16546 2630 2915 16175 15878 15343 15110 14726 14347 14142
is_linear=0
shrinkage=0.05


Tree=8
num_leaves=31
num_cat=0
split_feature=253 84 46 430 80 652 429 393 454 300 508 581 0 587 661 259 414 293 193 176 262 622 108 662 355 428 644 564 141 214
split_gain=788.26 760.925 535.035 476.586 410.793 387.714 378.68 366.78 375.694 362.823 363.249 274.06 273.805 253.766 254.959 254.802 254.794 247.06 241.575 228.748 222.761 221.094 217.644 216.392 215.374 215.316 215.434 217.928 218.728 212.461
threshold=1.0000000180025095e-35 1.0000000180025095e-35 1.0000000180025095e-35 1.0000000180025095e-35 0.29109772135774814 1.0000000180025095e-35 1.0000000180025095e-35 1.0000000180025095e-35 0.30212515192086936 0.31503945406608808 1.0000000180025095e-35 1.0000000180025095e-35 1.0000000180025095e-35 1.0000000180025095e-35 0.36624623645913607 1.0000000180025095e-35 0.29909629000262167 1.0000000180025095e-35 1.0000000180025095e-35 0.25648601945834931 1.0000000180025095e-35 0.35485066143424809 0.37410148196215132 0.30437261452949088 0.3477891715912832 0.40993933732992138 1.0000000180025095e-35 0.33309985752513721 1.0000000180025095e-35 1.0000000180025095e-35
decision_type=2 2 2 2 2 2 2 2 2 2 2 2 2 2 2 2 2 2 2 2 2 2 2 2 2 2 2 2 2 2
left_child=1 2 3 4 5 6 7 8 9 10 11 12 13 14 15 16 17 18 20 -17 21 23 -3 25 -7 26 27 28 29 -1
right_child=-2 22 -4 -5 -6 24 -8 -9 -10 -11 -12 -13 -14 -15 -16 19 -18 -19 -20 -21 -22 -23 -24 -25 -26 -27 -28 -29 -30 -31
leaf_value=-0.029952132999232012 0.073880994502843467 0.047116904686246353 0.077130229082451485 0.073535217612240689 0.067404035729987752 0.072405910879506027 0.077883818576439751 0.036813816181926091 0.07386566589180521 0.073701757860128017 0.075604463551128293 0.062737360793941918 0.048691667551580158 0.06769353006413685 0.064475840524373537 0.076369030712447619 0.069391800388604832 0.073617443430856688 0.061168895624938283 -0.054786254070893131 0.074639063174023121 0.048626904710472457 -0.037262689500350041 0.070816644176777827 -0.050517936910788076 0.064067343874074145 0.073721883806051866 0.071277371011020038 0.033569588506802743 0.073113030041639882
leaf_weight=8250.1250480413437 351.00330325961113 903.68403768539429 191.19941189885139 179.69896638393402 175.11241748929024 209.20098635554314 117.75556910037994 366.85487768054008 119.94874462485313 113.55000868439674 106.5884613096714 106.0260968208313 151.03452527523041 83.337793529033661 88.582791239023209 121.30251559615135 75.814124912023544 66.147704064846039 83.708930343389511 45.796028435230255 56.672005981206894 101.30659350752831 83.48040097951889 57.724627465009689 42.949416726827621 65.39445498585701 52.755104899406433 55.327723562717438 140.56475061178207 50.307730734348297
leaf_count=23398 946 2451 520 485 472 564 321 999 323 306 290 288 417 225 239 333 205 178 226 127 156 275 239 156 123 179 146 152 385 139
internal_value=0 -0.00211275 -0.0057983 -0.00722887 -0.00855988 -0.00979975 -0.0112743 -0.0122878 -0.0140906 -0.0151593 -0.0161933 -0.017207 -0.018095 -0.0191687 -0.0199461 -0.0207569 -0.0218858 -0.0226564 -0.0233708 0.0404238 -0.0241723 -0.0248105 0.0399813 -0.0256684 0.051468 -0.026315 -0.0270063 -0.0276318 -0.0282801 -0.0293275
internal_weight=0 12262 11274.8 11083.6 10903.9 10728.8 10476.6 10358.9 9992.02 9872.07 9758.52 9651.93 9545.9 9394.87 9311.53 9222.95 9055.85 8980.03 8913.89 167.099 8830.18 8773.51 987.164 8672.2 252.15 8614.47 8549.08 8496.33 8441 8300.43
internal_count=35263 34317 31627 31107 30622 30150 29463 29142 28143 27820 27514 27224 26936 26519 26294 26055 25595 25390 25212 460 24986 24830 2690 24555 687 24399 24220 24074 23922 23537
is_linear=0
shrinkage=0.05


Tree=9
num_leaves=31
num_cat=0
split_feature=264 536 49 426 112 402 554 8 108 296 326 620 664 529 162 134 131 374 231 209 303 204 120 606 411 121 405 259 152 462
split_gain=1094.5 769.535 697.855 530.387 538.717 464.264 455.739 444.759 376.434 379.113 376.127 365.282 367.219 370.521 336.854 312.418 318.287 314.951 273.134 269.981 254.626 251.22 245.991 236.103 229.291 225.313 229.199 217.486 216.919 213.121
threshold=1.0000000180025095e-35 0.33323436872223827 1.0000000180025095e-35 1.0000000180025095e-35 1.0000000180025095e-35 1.0000000180025095e-35 0.30218459839474504 0.23429919357912293 0.37410148196215132 0.29673531300439354 0.36311371401515863 0.2971766085710435 0.37604507406726567 1.0000000180025095e-35 1.0000000180025095e-35 0.3643099407217722 0.35262506139724642 0.34595677278995179 1.0000000180025095e-35 0.28806117687852451 1.0000000180025095e-35 0.35250135202171368 0.41279939705893348 1.0000000180025095e-35 0.31645800857103362 0.27868546525404231 1.0000000180025095e-35 1.0000000180025095e-35 1.0000000180025095e-35 0.33957484086921003
decision_type=2 2 2 2 2 2 2 2 2 2 2 2 2 2 2 2 2 2 2 2 2 2 2 2 2 2 2 2 2 2
left_child=1 2 3 4 5 6 7 8 9 10 11 12 13 14 15 16 17 18 19 20 22 -11 23 24 25 26 28 -28 -1 -21
right_child=-2 -3 -4 -5 -6 -7 -8 -9 -10 21 -12 -13 -14 -15 -16 -17 -18 -19 -20 29 -22 -23 -24 -25 -26 -27 27 -29 -30 -31
leaf_value=-0.036922791366756115 0.10411351237286351 0.098233091617756396 0.082461898430237365 0.089103391680447064 0.12073562309060598 0.052182898325084374 0.081532742345529971 0.071108012736384243 0.098359348710137351 0.09423691885065448 0.075644149392685545 0.077601944111819698 0.08906471191129646 0.10833585604012259 0.10587755728270737 0.071962663134954627 0.074624064120613384 0.07677618917022605 0.078490298450327053 0.078688121958468152 0.10787847538076663 -0.041124381077215333 0.10518191516928442 0.10881633551809558 0.048532854672793335 0.046131636573241215 0.073787237348491505 -0.039991489528601883 0.10948372272522917 -0.034053330907637923
leaf_weight=6038.3519810140133 245.26849907636642 183.88386033475399 221.4787800014019 139.83266133069992 79.127713173627853 286.31320640444756 126.41994905471802 149.92182083427906 71.459454357624054 123.49630956351757 104.24309319257736 94.586351826786995 74.578951105475426 53.728089898824692 49.976949334144592 83.115384072065353 78.378733426332474 72.733512938022614 59.869914203882217 102.87690527737141 33.109556674957275 47.446082204580307 32.926882952451706 29.700766563415527 86.159778699278831 87.40833306312561 93.366125881671906 76.341896802186966 25.406213909387589 70.742019951343536
leaf_count=25150 756 582 715 446 264 1021 426 510 235 401 341 346 241 169 161 285 285 254 195 342 105 206 103 94 301 311 332 312 80 294
internal_value=0 -0.00297485 -0.0051406 -0.00745821 -0.00909849 -0.0103586 -0.012635 -0.0141731 -0.0158576 -0.0169431 -0.0186557 -0.0200128 -0.0213043 -0.0224679 -0.023469 -0.0243963 -0.0255592 -0.0267124 -0.0278298 -0.0287832 -0.0304261 0.0566666 -0.0311339 -0.0318312 -0.0324832 -0.0335876 -0.0347054 0.0226047 -0.0363094 0.032751
internal_weight=0 8776.98 8593.1 8371.62 8231.79 8152.66 7866.35 7739.93 7590 7518.54 7347.6 7243.36 7148.77 7074.19 7020.46 6970.49 6887.37 6808.99 6736.26 6676.39 6502.77 170.942 6469.66 6436.74 6407.03 6320.87 6233.47 169.708 6063.76 173.619
internal_count=35263 34507 33925 33210 32764 32500 31479 31053 30543 30308 29701 29360 29014 28773 28604 28443 28158 27873 27619 27424 26788 607 26683 26580 26486 26185 25874 644 25230 636
is_linear=0
shrinkage=0.05


Tree=10
num_leaves=31
num_cat=0
split_feature=71 69 84 393 73 119 572 220 378 539 233 530 615 85 460 10 189 321 643 415 423 570 194 23 409 607 95 483 156 438
split_gain=660.784 584.841 524.298 410.363 357.378 359.342 313.085 329.727 283.569 257.058 253.436 250.507 237.888 237.631 229.676 228.824 234.249 221.562 213.633 221.682 227.24 222.308 223.708 226.127 225.87 232.687 231.134 225.096 197.661 193.113
threshold=0.21295159501031571 1.0000000180025095e-35 1.0000000180025095e-35 1.0000000180025095e-35 0.30558506301982419 0.2604158606849199 0.42383389310373615 0.2268997855174292 0.33543983247639614 0.19717281053009519 0.33417692677839189 0.39821390306959209 0.39068740793511564 0.39141138589224539 0.32784596751089107 1.0000000180025095e-35 0.26007138962808712 0.29804283939902182 0.49247970767897481 0.31988154946057473 0.3625341783525653 0.43070361897069592 1.0000000180025095e-35 0.34549664643632672 0.41180773626665379 0.38195689712084097 0.32628185694221495 0.36756022799103477 0.39429357165676659 0.32421236200117182
decision_type=2 2 2 2 2 2 2 2 2 2 2 2 2 2 2 2 2 2 2 2 2 2 2 2 2 2 2 2 2 2
left_child=1 2 3 4 5 6 7 8 9 10 11 12 13 14 15 16 18 -9 19 20 21 22 23 24 25 26 27 28 29 -1
right_child=-2 -3 -4 -5 -6 -7 -8 17 -10 -11 -12 -13 -14 -15 -16 -17 -18 -19 -20 -21 -22 -23 -24 -25 -26 -27 -28 -29 -30 -31
leaf_value=-0.03266431413331413 0.037667109656636971 -0.049833767959003149 -0.037765967697268692 -0.049285894054391245 0.06347679054945711 0.046791914094270054 0.063517698519724497 0.060119443663688071 0.058408728008806823 0.025271248702161377 0.06205665051790852 0.05603415652402044 0.059118878269950097 0.054329611684299166 0.041064871512858724 0.072062052205144875 0.033239195912801903 -0.053012459005082051 0.061062165714494354 0.042317715072628048 0.03757412406092988 0.060666315610280575 0.037644767076667432 0.037831944325621224 0.042745204616367161 0.05844581950206084 0.065673695578255045 0.054570414433793984 0.068093960240431961 0.060682504315794097
leaf_weight=4987.4416416287422 1065.6675178706646 642.86006844043732 876.75362327694893 366.84084761142731 251.01584538817406 445.75062620639801 194.33206325769424 326.15585136413574 185.0445308983326 676.86533337831497 130.69596460461617 148.61638027429581 123.83354344964027 137.24518954753876 196.99697890877724 76.810952723026276 244.68514308333397 49.898934453725815 87.229487538337708 149.89666992425919 170.95039772987366 82.324902981519699 152.58580470085144 145.33282151818275 119.05736249685287 78.699065387248993 64.798113465309143 78.692138195037842 50.186236470937729 56.027879923582077
leaf_count=14572 2914 1938 2630 1119 676 1216 525 881 499 1870 352 401 334 371 539 206 675 141 236 411 467 226 424 405 333 216 174 218 141 153
internal_value=0 -0.00352011 -0.00072575 0.00259549 0.00461779 0.00300488 0.000765127 -0.00066618 -0.00277983 -0.00420245 -0.006942 -0.00820299 -0.00956626 -0.0108027 -0.0121287 -0.0137298 -0.0147486 0.0451079 -0.0166354 -0.01774 -0.0192439 -0.0209142 -0.0220857 -0.0237189 -0.0253649 -0.0268903 -0.0281726 -0.0293483 -0.0306448 -0.0316273
internal_weight=0 11297.6 10654.8 9778.01 9411.17 9160.15 8714.4 8520.07 8144.02 7958.97 7282.11 7151.41 7002.79 6878.96 6741.72 6544.72 6467.91 376.055 6223.22 6135.99 5986.1 5815.15 5732.82 5580.24 5434.9 5315.85 5237.15 5172.35 5093.66 5043.47
internal_count=35263 32349 30411 27781 26662 25986 24770 24245 23223 22724 20854 20502 20101 19767 19396 18857 18651 1022 17976 17740 17329 16862 16636 16212 15807 15474 15258 15084 14866 14725
is_linear=0
shrinkage=0.05


Tree=11
num_leaves=31
num_cat=0
split_feature=84 46 202 430 80 652 429 393 454 300 508 662 223 581 396 41 661 414 193 108 355 622 473 512 385 141 428 644 0 660
split_gain=625.85 460.273 421.938 428.478 362.879 339.696 342.128 324.255 333.509 321.273 321.927 263.323 254.865 250.901 251.186 238.369 241.643 237.799 219.869 202.006 198.826 197.082 200.215 201.571 204.809 201.977 203.938 203.592 206.68 206.18
threshold=1.0000000180025095e-35 1.0000000180025095e-35 1.0000000180025095e-35 1.0000000180025095e-35 0.29109772135774814 1.0000000180025095e-35 1.0000000180025095e-35 1.0000000180025095e-35 0.30212515192086936 0.31503945406608808 1.0000000180025095e-35 0.30267696426905849 0.33250138103254373 1.0000000180025095e-35 0.24210423023704061 1.0000000180025095e-35 0.36624623645913607 0.29909629000262167 1.0000000180025095e-35 0.37410148196215132 0.3477891715912832 1.0000000180025095e-35 0.23868934713560616 1.0000000180025095e-35 1.0000000180025095e-35 1.0000000180025095e-35 0.40993933732992138 0.44034773447216408 1.0000000180025095e-35 0.26211680298124967
decision_type=2 2 2 2 2 2 2 2 2 2 2 2 2 2 2 2 2 2 2 2 2 2 2 2 2 2 2 2 2 2
left_child=1 2 3 4 5 6 7 8 9 10 11 12 13 14 15 16 17 18 21 -2 -7 22 23 24 25 26 27 28 29 -1
right_child=19 -3 -4 -5 -6 20 -8 -9 -10 -11 -12 -13 -14 -15 -16 -17 -18 -19 -20 -21 -22 -23 -24 -25 -26 -27 -28 -29 -30 -31
leaf_value=-0.030351990417672583 0.044654876388240367 0.072850584262906956 0.069761848237016463 0.069996350169877361 0.063731463086698345 0.068633562081222121 0.074005235235618028 0.035094462494410263 0.069742178559581064 0.06971349179376797 0.071490479684847605 0.067528134208623622 0.053855640958032927 0.05988598181975794 0.019899340444026258 0.068006734491881521 0.061302374208464176 0.065953630684701794 0.05797133563468141 -0.036258994899397566 -0.049824247875689551 0.047311484263946234 0.037256518826186379 0.072115469917968383 0.033035114066951636 0.032717285670316933 0.060074237205856973 0.074743833853749747 0.038538372397379367 0.060411701023188026
leaf_weight=7762.9285230338573 920.2135334610939 195.19375053048134 187.67635509371758 183.21924319863319 177.88385570049286 211.85020813345909 120.8345133960247 374.07485431432724 122.31924292445183 115.12780469655991 108.14501267671585 95.117306381464005 128.54875528812408 104.87191385030746 420.19608896970749 76.88189759850502 89.555911809206009 77.494640469551086 85.062491923570633 84.193512916564941 42.535352855920792 99.052833259105682 132.93868586421013 53.542917281389236 148.25179356336594 142.62983202934265 66.22393923997879 47.897180885076523 112.82666039466858 63.077959179878235
leaf_count=22299 2478 525 502 491 476 567 326 1012 327 308 291 255 349 283 1156 210 240 208 228 241 123 267 367 144 410 389 179 131 310 171
internal_value=0 -0.00327704 -0.00458617 -0.00583613 -0.00710153 -0.00826799 -0.00964498 -0.0106144 -0.0123153 -0.013326 -0.0143001 -0.0152558 -0.016075 -0.017023 -0.017883 -0.0196552 -0.020414 -0.0212464 -0.0220218 0.0378723 0.0488264 -0.0228103 -0.0236246 -0.0245884 -0.0252089 -0.0262625 -0.0273071 -0.0280317 -0.0286518 -0.0296204
internal_weight=0 11546 11350.8 11163.1 10979.9 10802 10547.6 10426.8 10052.7 9930.37 9815.24 9707.1 9611.98 9483.43 9378.56 8958.37 8881.48 8791.93 8714.43 1004.41 254.386 8629.37 8530.32 8397.38 8343.84 8195.58 8052.95 7986.73 7938.83 7826.01
internal_count=35263 32544 32019 31517 31026 30550 29860 29534 28522 28195 27887 27596 27341 26992 26709 25553 25343 25103 24895 2719 690 24667 24400 24033 23889 23479 23090 22911 22780 22470
is_linear=0
shrinkage=0.05


Tree=12
num_leaves=31
num_cat=0
split_feature=264 79 43 49 536 426 112 554 8 50 336 402 108 326 238 529 162 131 134 231 303 120 606 405 259 232 2 152 397 200
split_gain=958.864 736.953 622.13 624.191 645.421 498.008 505.221 448.969 444.311 428.976 362.712 361.969 360.859 344.722 344.438 342.948 317.659 319.351 323.215 256.057 238.188 223.307 222.677 216.777 210.618 209.657 198.768 199.646 200.457 198.544
threshold=1.0000000180025095e-35 0.2823717212689234 0.24014483341893397 1.0000000180025095e-35 0.33486018651001409 1.0000000180025095e-35 1.0000000180025095e-35 0.2645815473250962 0.23429919357912293 0.28247319259671383 1.0000000180025095e-35 0.4346753435996073 0.37410148196215132 0.36311371401515863 1.0000000180025095e-35 1.0000000180025095e-35 1.0000000180025095e-35 0.35262506139724642 0.35708971775267356 1.0000000180025095e-35 1.0000000180025095e-35 0.41279939705893348 1.0000000180025095e-35 1.0000000180025095e-35 1.0000000180025095e-35 0.42488301669949285 1.0000000180025095e-35 1.0000000180025095e-35 0.38493160991947856 0.40122101367501212
decision_type=2 2 2 2 2 2 2 2 2 2 2 2 2 2 2 2 2 2 2 2 2 2 2 2 2 2 2 2 2 2
left_child=1 2 3 4 5 6 7 8 9 10 11 12 13 14 15 16 17 18 19 20 21 22 23 25 -25 26 27 28 29 -1
right_child=-2 -3 -4 -5 -6 -7 -8 -9 -10 -11 -12 -13 -14 -15 -16 -17 -18 -19 -20 -21 -22 -23 -24 24 -26 -27 -28 -29 -30 -31
leaf_value=-0.036741981513309513 0.095217242613957906 0.10421967478133459 0.083950103678413213 0.074901297384049187 0.089563300307764174 0.081138903440784949 0.1104757824090396 0.076168531127481953 0.06709781586218104 0.059292370080961387 0.09469769584202993 0.10669533866192689 0.088934445564999853 0.067663148988164667 0.098240580324659696 0.099503116808165995 0.09841503224927789 0.070313440489807574 0.066248619977094234 0.072081585471345924 0.098227523560523056 0.095650170860386408 0.10161268958904522 0.070394222538380319 -0.039872331030225784 0.097171609939229103 0.11798544925470214 0.10095542346555415 0.11670986823889813 0.10895774718838414
leaf_weight=6171.5508102625608 256.49466067552567 157.74069803953171 192.80948948860168 226.90318462252617 162.1956622004509 143.42936587333679 82.13375923037529 135.07997630536556 158.3016145825386 177.28147432208061 68.960255652666092 55.484590977430344 73.204206109046936 104.10245752334595 57.15402740240097 54.862491428852081 50.918338596820831 83.382000833749771 89.483847945928574 61.562242329120636 35.813197135925293 34.58095046877861 31.152368932962418 99.34029158949852 76.775000363588333 30.353798359632492 21.283789873123169 26.857577592134476 21.510641515254974 23.470791637897491
leaf_count=26356 756 500 609 702 493 438 260 443 521 602 206 183 228 327 170 165 157 293 300 193 108 103 95 342 317 96 70 81 72 77
internal_value=0 -0.00287017 -0.0048459 -0.00689454 -0.00917735 -0.0111873 -0.0128797 -0.0141883 -0.0157927 -0.0175542 -0.0194277 -0.0205203 -0.0215079 -0.0226507 -0.0239996 -0.0250103 -0.0260064 -0.0269371 -0.0281431 -0.0294162 -0.0303669 -0.0310714 -0.0317454 -0.0323874 0.0223251 -0.033918 -0.0345532 -0.0350732 -0.0356609 -0.03619
internal_weight=0 8707.68 8549.94 8357.13 8130.23 7968.03 7824.6 7742.47 7607.39 7449.09 7271.8 7202.84 7147.36 7074.15 6970.05 6912.9 6858.04 6807.12 6723.74 6634.25 6572.69 6536.88 6502.3 6471.14 176.115 6295.03 6264.67 6243.39 6216.53 6195.02
internal_count=35263 34507 34007 33398 32696 32203 31765 31505 31062 30541 29939 29733 29550 29322 28995 28825 28660 28503 28210 27910 27717 27609 27506 27411 659 26752 26656 26586 26505 26433
is_linear=0
shrinkage=0.05


Tree=13
num_leaves=31
num_cat=0
split_feature=71 69 393 73 119 477 394 378 183 266 418 167 312 85 460 438 174 423 586 570 194 23 409 95 16 172 483 10 539 156
split_gain=593.349 545.51 425.017 355.894 368.164 377.386 362.049 282.11 236.903 234.269 223.183 227.525 228.876 233.176 229.044 190.516 191.463 193.435 196.905 192.9 196.89 197.28 195.516 198.974 198.241 204.313 203.007 201.243 190.292 176.818
threshold=0.21351337507988535 1.0000000180025095e-35 1.0000000180025095e-35 0.29934861848354516 0.2604158606849199 0.2890818444281249 0.26723433635082716 0.33543983247639614 0.31540155933654046 0.32765050990356226 0.33722337242394179 0.31046234103624565 0.32515786624977944 0.38938334406876624 0.32784596751089107 0.32421236200117182 0.30581929549830805 0.3625341783525653 0.41008913779246864 0.4718167801150101 1.0000000180025095e-35 0.34549664643632672 0.41180773626665379 0.32628185694221495 0.35922353162437487 0.23873509246074753 0.36756022799103477 1.0000000180025095e-35 0.23421971677854567 0.39167799690826915
decision_type=2 2 2 2 2 2 2 2 2 2 2 2 2 2 2 2 2 2 2 2 2 2 2 2 2 2 2 2 2 2
left_child=1 2 3 4 5 6 7 8 9 10 11 12 13 14 15 16 17 18 19 20 21 22 23 24 25 26 27 28 29 -1
right_child=-2 -3 -4 -5 -6 -7 -8 -9 -10 -11 -12 -13 -14 -15 -16 -17 -18 -19 -20 -21 -22 -23 -24 -25 -26 -27 -28 -29 -30 -31
leaf_value=-0.033332341522046276 0.035637746773449878 -0.048702568409529343 -0.048292248041769952 0.059471054111120719 0.044123446351690673 0.051071348657711096 0.057157994361473057 0.055181320435540242 0.040617095752308117 0.060220607085640081 0.055263998904810034 0.043539677920679649 0.04724348349038858 0.051076030706863187 0.038913653629274819 0.061360427118099206 0.050855862245575957 0.034842512671484624 0.06441456868255617 0.06823939080949902 0.035757779017675073 0.035945397893964275 0.040457389720703174 0.060672925521909941 0.060906759313654357 0.0082680504515954649 0.051253392768977515 0.067710311104447946 0.0025711637982680433 0.05619348707087099
leaf_weight=5422.5536820590496 1067.383358746767 626.68381437659264 449.05407109856606 257.29336389899254 449.32001522183418 321.10978722572327 235.1256745159626 186.26376590132713 253.49022540450096 122.42826488614082 131.12053483724594 190.32223883271217 160.95403268933296 139.4950136244297 198.10125651955605 79.651205688714981 104.38307934999466 173.35754328966141 70.703522026538849 62.174394398927689 153.62900897860527 146.37485536932945 120.21811869740486 68.840646088123322 66.807015061378479 414.94147992134094 79.72351148724556 53.237350761890411 418.16218203306198 55.719656050205231
leaf_count=16130 2900 1941 1404 689 1216 865 630 499 690 328 361 515 450 375 539 215 284 471 191 169 424 405 333 184 179 1181 218 142 1180 155
internal_value=0 -0.00337558 -0.000691891 0.00141705 -9.50615e-05 -0.00220223 -0.00408048 -0.0057033 -0.00700886 -0.00844048 -0.00945198 -0.0104894 -0.0117766 -0.0129901 -0.0141524 -0.0155559 -0.0163826 -0.0173432 -0.0186115 -0.0194427 -0.0202214 -0.0214775 -0.022732 -0.0238865 -0.0247805 -0.0256688 -0.0280044 -0.0290664 -0.0299402 -0.0324218
internal_weight=0 11211.2 10584.6 10135.5 9878.21 9428.89 9107.78 8872.65 8686.39 8432.9 8310.47 8179.35 7989.03 7828.07 7688.58 7490.48 7410.83 7306.44 7133.09 7062.38 7000.21 6846.58 6700.2 6579.99 6511.14 6444.34 6029.4 5949.67 5896.44 5478.27
internal_count=35263 32363 30422 29018 28329 27113 26248 25618 25119 24429 24101 23740 23225 22775 22400 21861 21646 21362 20891 20700 20531 20107 19702 19369 19185 19006 17825 17607 17465 16285
is_linear=0
shrinkage=0.05


Tree=14
num_leaves=31
num_cat=0
split_feature=253 84 46 430 80 652 429 454 393 300 223 41 552 662 661 414 95 193 622 564 512 644 456 580 259 176 428 621 116 293
split_gain=661.559 608.109 443.136 398.259 335.6 319.515 317.785 299.021 307.584 298.945 221.213 208.258 210.685 214.664 219.786 217.037 213.659 198.991 200.336 186.647 185.119 184.255 185.861 187.819 188.63 192.945 192.808 193.564 192.517 187.497
threshold=1.0000000180025095e-35 1.0000000180025095e-35 1.0000000180025095e-35 1.0000000180025095e-35 0.29109772135774814 1.0000000180025095e-35 1.0000000180025095e-35 0.30212515192086936 1.0000000180025095e-35 0.31503945406608808 0.33250138103254373 1.0000000180025095e-35 0.24210423023704061 0.22532941213969859 0.36262587233549742 0.29909629000262167 0.32628185694221495 1.0000000180025095e-35 1.0000000180025095e-35 0.33309985752513721 1.0000000180025095e-35 0.44034773447216408 0.41091517319118742 1.0000000180025095e-35 1.0000000180025095e-35 0.25648601945834931 0.40993933732992138 1.0000000180025095e-35 1.0000000180025095e-35 1.0000000180025095e-35
decision_type=2 2 2 2 2 2 2 2 2 2 2 2 2 2 2 2 2 2 2 2 2 2 2 2 2 2 2 2 2 2
left_child=1 2 3 4 5 6 7 8 9 10 11 12 13 14 15 17 -15 18 19 20 21 22 23 24 26 -26 27 28 29 -1
right_child=-2 -3 -4 -5 -6 -7 -8 -9 -10 -11 -12 -13 -14 16 -16 -17 -18 -19 -20 -21 -22 -23 -24 -25 25 -27 -28 -29 -30 -31
leaf_value=-0.028889751310654424 0.067415206421965537 0.035489504523855152 0.069566103574195709 0.066838540115681508 0.060455303201386416 0.046505094670083076 0.070650119913802129 0.066454353895790935 0.032500447012874654 0.066308940438579531 0.05078096757771175 0.064852468128670876 0.01825569999903115 0.063741860548970533 0.057878887897149935 0.063286915367114491 -0.049260909110177553 0.05493078469454369 0.046346146984357156 0.067272537281308192 0.0683337244636225 0.071816789388914407 0.079459875133041771 0.072817646889627746 0.072861277851916748 -0.053034620618984556 0.057039362589407311 0.082862535103384968 0.079186117253426225 0.06998276123167764
leaf_weight=7802.0974345505238 353.89520570635796 996.01108798384666 194.24426743388176 181.43180075287819 176.79648718237877 253.00645223259926 119.6278512775898 122.1063324213028 369.67416071891785 114.59958273172379 126.3960397541523 79.35620254278183 416.92820847034454 149.57890519499779 91.292134076356888 77.319024354219437 58.068345367908478 85.739038735628128 107.04126945137978 57.513522148132324 54.979921907186508 50.164891064167023 42.933736383914948 48.936124742031097 94.359142035245895 44.921898782253265 68.582874625921249 39.77778548002243 41.894838392734528 48.24602535367012
leaf_count=22654 946 2690 520 485 472 687 321 326 996 306 341 215 1144 405 244 207 174 229 287 156 147 136 118 132 257 127 184 113 115 129
internal_value=0 -0.00193854 -0.00529167 -0.00662282 -0.00786359 -0.00900683 -0.0103688 -0.0113197 -0.0122627 -0.0139686 -0.0149283 -0.0158062 -0.0164886 -0.0181047 -0.0192963 -0.0201094 0.0321407 -0.0208603 -0.0216247 -0.0224914 -0.0231107 -0.0237178 -0.0243 -0.024844 -0.0254311 0.0322564 -0.0264354 -0.0271571 -0.0277116 -0.0282821
internal_weight=0 12113.6 11117.6 10923.4 10741.9 10565.1 10312.1 10192.5 10070.4 9700.73 9586.13 9459.73 9380.38 8963.45 8755.8 8664.51 207.647 8587.19 8501.45 8394.41 8336.89 8281.91 8231.75 8188.82 8139.88 139.281 8000.6 7932.02 7892.24 7850.34
internal_count=35263 34317 31627 31107 30622 30150 29463 29142 28816 27820 27514 27173 26958 25814 25235 24991 579 24784 24555 24268 24112 23965 23829 23711 23579 384 23195 23011 22898 22783
is_linear=0
shrinkage=0.05


Tree=15
num_leaves=31
num_cat=0
split_feature=264 79 43 49 536 112 426 8 554 50 620 336 131 402 529 238 134 326 162 231 21 120 448 606 397 3 152 200 2 232
split_gain=871.07 639.063 540.733 537.494 563.681 447.152 445.079 395.32 408.385 395.004 398.387 337.369 327.261 314.509 319.109 324.4 308.239 296.291 263.787 238.332 220.032 212.488 193.43 190.33 185.271 181.432 178.519 178.145 175.057 171.628
threshold=1.0000000180025095e-35 0.28517333274476497 0.30933070229687254 1.0000000180025095e-35 0.34586268190860586 1.0000000180025095e-35 1.0000000180025095e-35 0.23429919357912293 0.31147972124298701 0.30898640238372865 0.35107432539275213 1.0000000180025095e-35 0.35262506139724642 0.4346753435996073 1.0000000180025095e-35 1.0000000180025095e-35 0.3643099407217722 0.36784690610805609 1.0000000180025095e-35 1.0000000180025095e-35 1.0000000180025095e-35 0.41279939705893348 1.0000000180025095e-35 1.0000000180025095e-35 0.38493160991947856 0.3174695925283188 1.0000000180025095e-35 0.40122101367501212 1.0000000180025095e-35 0.42488301669949285
decision_type=2 2 2 2 2 2 2 2 2 2 2 2 2 2 2 2 2 2 2 2 2 2 2 2 2 2 2 2 2 2
left_child=1 2 3 4 5 6 7 8 9 10 11 12 13 14 15 16 17 18 19 20 21 22 23 24 26 -5 27 28 29 -1
right_child=-2 -3 -4 25 -6 -7 -8 -9 -10 -11 -12 -13 -14 -15 -16 -17 -18 -19 -20 -21 -22 -23 -24 -25 -26 -27 -28 -29 -30 -31
leaf_value=-0.034721194621823506 0.088521451347796945 0.094279352051177157 0.081208653056054028 0.086534167647616997 0.083797276396951961 0.10180930016737876 0.072424729000500968 0.062998823089241984 0.071505840836382104 0.059926642878497444 0.08209372761421499 0.087257621458767615 0.072122054591379006 0.098567645717563365 0.092231132956425543 0.090877466774276092 0.067971292567900729 0.0609054009866275 0.088772082882586562 0.0665548723190066 0.11857817881574062 0.090923734850511043 0.12056649560339182 0.096887487973286224 0.10533749886735851 -0.034317849620401943 0.093879955808715485 0.09896739668057819 0.10623981389772592 0.086349998469079425
leaf_weight=6188.4654794633389 269.6754202246666 166.4594683945179 179.47860231995583 199.85383147001266 161.37425008416176 87.477535009384155 153.50522539019585 164.93683606386185 133.19263637065887 163.828553378582 96.909525185823441 72.59282723069191 92.913714408874512 53.364655315876007 59.264205485582352 60.591348946094513 87.362784832715988 95.425524473190308 48.13988333940506 65.004781752824783 24.933177471160889 35.979356735944748 21.000565946102142 28.767533004283905 24.456559240818024 36.769886553287506 27.798129260540009 25.427101850509644 22.284882664680481 29.41063666343689
leaf_count=26960 768 504 545 591 474 265 453 527 422 544 343 209 316 166 172 174 283 289 144 197 84 104 70 85 77 116 81 79 69 89
internal_value=0 -0.00273741 -0.00465072 -0.0065161 -0.00870619 -0.0106047 -0.0118693 -0.013567 -0.0152605 -0.0168384 -0.0185949 -0.0199763 -0.0210899 -0.0223455 -0.0232882 -0.0242972 -0.025335 -0.0265632 -0.0278392 -0.0287036 -0.0296669 -0.0302441 -0.0309288 -0.03143 -0.0320143 0.0677545 -0.0325481 -0.033109 -0.0336472 -0.0341485
internal_weight=0 8606.97 8440.51 8261.03 8024.41 7863.03 7775.56 7622.05 7457.11 7323.92 7160.09 7063.18 6990.59 6897.68 6844.31 6785.05 6724.46 6637.09 6541.67 6493.53 6428.52 6403.59 6367.61 6346.61 6317.84 236.624 6293.39 6265.59 6240.16 6217.88
internal_count=35200 34432 33928 33383 32676 32202 31937 31484 30957 30535 29991 29648 29439 29123 28957 28785 28611 28328 28039 27895 27698 27614 27510 27440 27355 707 27278 27197 27118 27049
is_linear=0
shrinkage=0.05


Tree=16
num_leaves=31
num_cat=0
split_feature=71 69 84 393 73 119 394 572 378 539 233 615 266 423 174 185 85 10 189 262 415 570 194 607 409 95 415 483 172 59
split_gain=528.609 518.664 421.953 352.315 287.856 287.053 269.505 264.521 230.56 209.267 202.229 205.59 212.933 213.282 193.67 194.883 202.927 186.637 189.646 185.196 178.827 193.807 179.421 182.209 185.128 180.729 178.333 167.652 176.662 169.147
threshold=0.21419915090836203 1.0000000180025095e-35 1.0000000180025095e-35 1.0000000180025095e-35 0.30558506301982419 0.2604158606849199 0.26723433635082716 0.42383389310373615 0.33543983247639614 0.20739715226768926 0.33417692677839189 0.37199483402781625 0.28907567118714261 0.35740494995634692 0.2876676859068153 0.34743246983313986 0.38382861654923867 1.0000000180025095e-35 0.24079070619852352 0.39377639799253872 0.31988154946057473 0.43070361897069592 1.0000000180025095e-35 0.38354644384198383 0.41180773626665379 1.0000000180025095e-35 0.32516870093810818 0.35522870460756628 0.23873509246074753 0.41350110932528833
decision_type=2 2 2 2 2 2 2 2 2 2 2 2 2 2 2 2 2 2 2 2 2 2 2 2 2 2 2 2 2 2
left_child=1 2 3 4 5 6 7 8 9 10 11 12 13 14 15 16 17 18 20 -2 21 22 23 24 25 27 -4 28 29 -1
right_child=19 -3 26 -5 -6 -7 -8 -9 -10 -11 -12 -13 -14 -15 -16 -17 -18 -19 -20 -21 -22 -23 -24 -25 -26 -27 -28 -29 -30 -31
leaf_value=-0.030467055050862536 0.038376294940148402 -0.047672866745070284 -0.040886301987627709 -0.047079903113169119 0.055620935295977406 0.041039607747800418 0.053280816884844664 0.058951114388018803 0.052704459948762064 0.02348999729613491 0.055010469906285366 0.053069250425060971 0.055203827424708432 0.037710391631869761 0.053978432666167309 0.041799608184028614 0.047126515214996965 0.065050078522680146 0.019421022700998214 -0.051163009063691915 0.037152088243809625 0.056793564470254555 0.033495141348378575 0.053620126072369094 0.03869730370765212 0.060177200522359413 0.056514155871540663 0.043420197787850577 0.0052144630879072743 0.060766205638599025
leaf_weight=4662.8040532469749 1014.2031049728394 625.28745782375336 779.33098796010017 350.1071360707283 262.57348665595055 458.83198583126068 234.7225775718689 179.7378948032856 185.680918186903 651.66172507405281 132.99196189641953 138.68873727321625 129.14869597554207 230.30850070714951 111.95507502555847 162.09155559539795 134.17128387093544 71.941762566566467 357.07826510071754 61.235796004533768 142.77431455254555 82.031822144985199 149.09707444906235 78.311618268489838 118.1440052986145 62.136052846908569 50.010510802268982 86.508039891719818 398.05551263689995 51.363761276006699
leaf_count=14027 2734 1994 2450 1134 701 1235 627 480 496 1792 355 372 345 622 301 438 360 192 995 176 387 222 409 212 325 166 145 235 1135 138
internal_value=0 -0.00343885 -0.000792635 0.0021566 0.00401559 0.00251173 0.000444485 -0.00104672 -0.00237202 -0.00365819 -0.0060818 -0.0072155 -0.00840516 -0.00959595 -0.0112298 -0.0123432 -0.0137157 -0.0150197 -0.0159505 0.0332779 -0.0181165 -0.0195037 -0.0206201 -0.0220985 -0.0232009 -0.0245909 -0.0350129 -0.0256041 -0.0267721 -0.029473
internal_weight=0 11077.5 10452.3 9622.92 9272.81 9010.24 8551.41 8316.68 8136.94 7951.26 7299.6 7166.61 7027.92 6898.77 6668.46 6556.51 6394.42 6260.25 6188.3 1075.44 5831.23 5688.45 5606.42 5457.32 5379.01 5260.87 829.341 5198.73 5112.22 4714.17
internal_count=35200 32290 30296 27701 26567 25866 24631 24004 23524 23028 21236 20881 20509 20164 19542 19241 18803 18443 18251 2910 17256 16869 16647 16238 16026 15701 2595 15535 15300 14165
is_linear=0
shrinkage=0.05


Tree=17
num_leaves=31
num_cat=0
split_feature=253 84 46 430 652 80 508 393 300 429 632 581 223 262 587 293 0 661 414 259 193 442 662 622 37 136 507 214 621 644
split_gain=606.601 536.498 397.864 360.116 300.307 296.293 287.529 274.186 279.978 272.393 244.563 229.487 224.896 194.866 193.41 186.711 189.339 193.365 195.084 189.621 189.254 188.586 186.99 189.931 191.862 193.332 191.879 193.451 191.267 186.972
threshold=1.0000000180025095e-35 1.0000000180025095e-35 1.0000000180025095e-35 1.0000000180025095e-35 1.0000000180025095e-35 1.0000000180025095e-35 1.0000000180025095e-35 1.0000000180025095e-35 0.31503945406608808 1.0000000180025095e-35 0.30419567166587796 1.0000000180025095e-35 0.33250138103254373 1.0000000180025095e-35 1.0000000180025095e-35 1.0000000180025095e-35 0.33611437559451368 0.36624623645913607 0.29909629000262167 1.0000000180025095e-35 1.0000000180025095e-35 1.0000000180025095e-35 0.22532941213969859 0.35485066143424809 1.0000000180025095e-35 0.40624692996037814 1.0000000180025095e-35 1.0000000180025095e-35 1.0000000180025095e-35 1.0000000180025095e-35
decision_type=2 2 2 2 2 2 2 2 2 2 2 2 2 2 2 2 2 2 2 2 2 2 2 2 2 2 2 2 2 2
left_child=1 2 3 4 5 6 7 8 9 10 11 12 13 14 15 16 17 18 19 20 21 22 23 24 25 26 27 28 29 -1
right_child=-2 -3 -4 -5 -6 -7 -8 -9 -10 -11 -12 -13 -14 -15 -16 -17 -18 -19 -20 -21 -22 -23 -24 -25 -26 -27 -28 -29 -30 -31
leaf_value=-0.029004042288478582 0.064562699939572588 0.033572102810110215 0.066413405532955924 0.063431474708773514 0.045052383799037754 0.056871361057531405 0.066753138973312087 0.03124842995772617 0.063596489523036301 0.067907637256168094 0.063003165937292438 0.058102070025340374 0.050176890181242953 0.069970041387652157 0.059437663178373693 0.065777254298236512 0.042157546511868711 0.05313606620434394 0.060788368495396851 0.034426983246502979 0.050196575978999285 0.057259773966470522 0.027046625365262002 0.043722775894909416 0.083761780597788438 0.065702872374217222 0.089849614886544832 0.068883714626573139 0.078642687725329063 0.065285966138591167
leaf_weight=7769.2460488677025 355.12620493769646 986.82552662491798 192.10669174790382 182.65829825401306 266.30551216006279 169.35374993085861 121.16605320572853 374.49785828590393 119.84628447890282 102.15562650561333 101.54011437296867 106.10598412156105 127.19811576604843 64.296624302864075 81.202001571655273 65.89921373128891 126.02613040804863 90.520543038845062 73.510499477386475 151.54489585757256 89.812988221645355 72.969797492027283 179.22432070970535 100.51324400305748 40.0249924659729 57.086993753910065 35.193471252918243 52.085855305194855 41.982385724782944 52.933844387531281
leaf_count=22833 951 2663 514 489 722 453 324 1007 321 274 272 286 342 176 217 176 344 242 197 415 240 199 504 269 112 154 101 143 117 143
internal_value=0 -0.00174535 -0.00491171 -0.00617867 -0.00737455 -0.00872142 -0.00981084 -0.0107316 -0.0123522 -0.0133022 -0.0141774 -0.0150132 -0.0158499 -0.0167684 -0.0173826 -0.0180758 -0.0186944 -0.0195653 -0.0203203 -0.0210102 -0.0219996 -0.0227714 -0.0234726 -0.0245837 -0.0254367 -0.0259825 -0.0266407 -0.0271586 -0.0277947 -0.028366
internal_weight=0 11993.8 11007 10814.9 10632.2 10365.9 10196.6 10075.4 9700.92 9581.07 9478.92 9377.38 9271.27 9144.07 9079.78 8998.58 8932.68 8806.65 8716.13 8642.62 8491.07 8401.26 8328.29 8149.07 8048.55 8008.53 7951.44 7916.25 7864.16 7822.18
internal_count=35200 34249 31586 31072 30583 29861 29408 29084 28077 27756 27482 27210 26924 26582 26406 26189 26013 25669 25427 25230 24815 24575 24376 23872 23603 23491 23337 23236 23093 22976
is_linear=0
shrinkage=0.05


Tree=18
num_leaves=31
num_cat=0
split_feature=264 79 43 536 49 112 426 554 8 50 620 108 336 131 529 238 402 134 326 162 231 303 21 120 405 259 606 448 397 152
split_gain=777.133 565.604 491.399 482.351 505.82 405.869 397.394 364.385 379.522 369.249 368.279 329.708 313.213 307.49 294.404 296.779 300.302 294.117 282.638 251.437 218.56 221.765 206.24 206.673 204.537 192.065 182.366 181.985 178.697 174.411
threshold=1.0000000180025095e-35 0.28517333274476497 0.24014483341893397 0.34586268190860586 1.0000000180025095e-35 1.0000000180025095e-35 1.0000000180025095e-35 0.3186979567918003 0.23429919357912293 0.30898640238372865 0.25851858045923165 0.37410148196215132 1.0000000180025095e-35 0.36290727404647344 1.0000000180025095e-35 1.0000000180025095e-35 0.4346753435996073 0.35499665342310827 0.36784690610805609 1.0000000180025095e-35 1.0000000180025095e-35 1.0000000180025095e-35 1.0000000180025095e-35 0.41279939705893348 1.0000000180025095e-35 1.0000000180025095e-35 1.0000000180025095e-35 1.0000000180025095e-35 0.38493160991947856 1.0000000180025095e-35
decision_type=2 2 2 2 2 2 2 2 2 2 2 2 2 2 2 2 2 2 2 2 2 2 2 2 2 2 2 2 2 2
left_child=1 2 3 4 5 6 7 8 9 10 11 12 13 14 15 16 17 18 19 20 21 22 23 24 26 -26 27 28 29 -1
right_child=-2 -3 -4 -5 -6 -7 -8 -9 -10 -11 -12 -13 -14 -15 -16 -17 -18 -19 -20 -21 -22 -23 -24 -25 25 -27 -28 -29 -30 -31
leaf_value=-0.036664883715544508 0.082511520090923801 0.086908026946141026 0.073468391490864135 0.077959588628378929 0.062895226568681198 0.094905624888820483 0.066951920661245945 0.0685116212541899 0.059292214675555233 0.056858637299123951 0.071491344975118068 0.086087847181655297 0.081002736128294006 0.069586258476770593 0.08622703323248232 0.084348797858344787 0.090336944397429411 0.062460781253660252 0.056796525140800427 0.083484361243253702 0.061134626838467279 0.090402435224360866 0.10692472503699445 0.085372591313687129 0.066801850671006274 -0.03913132553170743 0.090986018460825588 0.1085063995080367 0.096249845375201676 0.087984473346547479
leaf_weight=5802.4764794707298 276.62901371717453 172.74411565065384 197.31581309437752 166.04389804601669 242.95735642313957 90.475894749164581 157.61111423373222 133.75996798276901 169.0404766201973 167.52261000871658 112.47873923182487 72.854398965835571 74.663178652524948 90.477264881134033 60.890483856201172 62.349615752696991 55.708641231060028 92.11124561727047 97.855903416872025 49.434155851602554 65.492772310972214 37.581145614385605 26.818775683641434 37.255009263753891 98.250435307621956 75.79898102581501 28.890735656023026 22.026431292295456 25.630994379520416 28.199311584234238
leaf_count=26122 768 504 589 474 707 265 452 414 527 544 393 223 209 300 172 174 166 295 289 144 193 109 85 105 336 332 83 69 77 80
internal_value=0 -0.00264372 -0.00449814 -0.00638699 -0.00814234 -0.0103734 -0.0116194 -0.0132733 -0.0147609 -0.0165032 -0.0182545 -0.0197165 -0.0208448 -0.0219701 -0.0232127 -0.0242214 -0.0252559 -0.0262485 -0.0275261 -0.0288363 -0.0297249 -0.0306873 -0.0314278 -0.0320343 -0.0327535 0.0206677 -0.0343275 -0.0349434 -0.035483 -0.036062
internal_weight=0 8514.72 8341.97 8144.66 7978.61 7735.65 7645.18 7487.57 7353.81 7184.77 7017.24 6904.77 6831.91 6757.25 6666.77 6605.88 6543.53 6487.82 6395.71 6297.86 6248.42 6182.93 6145.35 6118.53 6081.27 174.049 5907.22 5878.33 5856.31 5830.68
internal_count=35200 34432 33928 33339 32865 32158 31893 31441 31027 30500 29956 29563 29340 29131 28831 28659 28485 28319 28024 27735 27591 27398 27289 27204 27099 668 26431 26348 26279 26202
is_linear=0
shrinkage=0.05


Tree=19
num_leaves=31
num_cat=0
split_feature=71 84 396 119 477 73 394 378 183 539 615 266 174 460 85 415 262 312 420 23 415 570 312 203 539 607 95 16 438 10
split_gain=480.142 342.594 358.394 258.519 277.746 276.133 281.755 227.259 201.304 192.021 196.932 202.422 174.137 180.331 181.505 169.697 165.998 152.837 150.482 150.83 151.525 155.497 162.438 157.628 168.137 175.178 172.645 173.838 152.88 155.573
threshold=0.21419915090836203 1.0000000180025095e-35 1.0000000180025095e-35 0.27344574131617622 0.2890818444281249 0.30558506301982419 0.26723433635082716 0.34551702857400107 0.31540155933654046 0.29265741687528624 0.39068740793511564 0.28907567118714261 0.2876676859068153 0.33145802373526378 0.38382861654923867 0.32516870093810818 0.39377639799253872 0.32515786624977944 0.46961673480333166 0.34549664643632672 0.31988154946057473 0.43070361897069592 0.27913188020787089 0.31836526233335743 0.19775779880859537 0.38354644384198383 1.0000000180025095e-35 0.35922353162437487 0.32421236200117182 1.0000000180025095e-35
decision_type=2 2 2 2 2 2 2 2 2 2 2 2 2 2 2 2 2 2 2 2 2 2 2 2 2 2 2 2 2 2
left_child=1 2 3 4 5 6 7 8 9 10 11 12 13 14 18 17 -2 -3 19 20 21 22 23 24 25 26 27 28 29 -1
right_child=16 15 -4 -5 -6 -7 -8 -9 -10 -11 -12 -13 -14 -15 -16 -17 -18 -19 -20 -21 -22 -23 -24 -25 -26 -27 -28 -29 -30 -31
leaf_value=-0.028073688015889831 0.036433492525698663 -0.045271346421986963 -0.046805519529576796 0.038498587978370809 0.046201394254915845 0.046645697706028888 0.050060311609682454 0.049645949778989756 0.037670181750350619 0.052067769724348671 0.051960981559400182 0.051988220763356012 0.050646314539346565 0.036065246634773888 0.044262970286272206 0.054593582914569276 -0.049413626117395866 0.052011143891457626 0.060512624985293952 0.034154750708251427 0.034744856717741697 0.049804962936958269 0.016608404818086221 0.031156938058308953 0.005328052850573705 0.050555371903396054 0.058468713413434618 0.053020839348197339 0.053285406132240268 0.061609062646647117
leaf_weight=5397.5726613402367 1016.3100474178791 737.47950214147568 406.2469644844532 441.76256623864174 305.90331363677979 279.7811196744442 236.04790866374969 183.93841743469238 249.65766909718513 131.21932718157768 130.64174744486809 129.74079066514969 112.88343092799187 190.83091595768929 135.03856068849564 50.541932314634323 59.613703519105911 42.712048649787903 66.689454466104507 153.05121818184853 143.94566586613655 85.774618566036224 323.84701588749886 148.91599103808403 557.13216596841812 78.866636037826538 62.03623366355896 69.774128168821335 59.541855692863464 48.793943673372269
leaf_count=16520 2734 2395 1331 1189 825 758 632 493 679 354 349 347 303 518 363 145 176 129 179 423 389 231 903 409 1570 212 166 187 160 131
internal_value=0 -0.00332545 -0.000793934 0.00112845 -0.000650198 -0.00224696 -0.00382002 -0.00532339 -0.00654511 -0.00792043 -0.00891746 -0.00994178 -0.0109942 -0.0119193 -0.0131683 -0.0341938 0.031677 -0.0399456 -0.0142461 -0.0149454 -0.0160226 -0.0170922 -0.0179427 -0.0196849 -0.0208917 -0.0234471 -0.0244823 -0.0254052 -0.0263991 -0.0272702
internal_weight=0 10960.4 10129.6 9723.39 9281.62 8975.72 8695.94 8459.89 8275.95 8026.3 7895.08 7764.44 7634.69 7521.81 7330.98 830.733 1075.92 780.192 7195.94 7129.25 6976.2 6832.26 6746.48 6422.63 6273.72 5716.59 5637.72 5575.68 5505.91 5446.37
internal_count=35200 32290 29621 28290 27101 26276 25518 24886 24393 23714 23360 23011 22664 22361 21843 2669 2910 2524 21480 21301 20878 20489 20258 19355 18946 17376 17164 16998 16811 16651
is_linear=0
shrinkage=0.05


Tree=20
num_leaves=31
num_cat=0
split_feature=84 202 430 643 80 393 429 300 454 508 652 581 662 0 259 190 321 339 328 23 355 262 415 312 293 661 473 442 507 621
split_gain=440.646 313.486 313.371 268.88 242.203 239.56 247.126 244.105 243.629 229.71 215.285 194.632 185.937 182.605 184.918 184.393 173.837 207.245 216.842 256.064 170.363 169.368 166.424 172.114 166.254 164.87 159.98 154.847 156.302 156.997
threshold=1.0000000180025095e-35 1.0000000180025095e-35 1.0000000180025095e-35 0.26767476311272115 1.0000000180025095e-35 1.0000000180025095e-35 1.0000000180025095e-35 1.0000000180025095e-35 1.0000000180025095e-35 1.0000000180025095e-35 1.0000000180025095e-35 1.0000000180025095e-35 0.30267696426905849 0.33611437559451368 1.0000000180025095e-35 0.27611888202233897 0.29804283939902182 1.0000000180025095e-35 0.33640227505039322 0.32611172440450353 0.3477891715912832 1.0000000180025095e-35 0.32516870093810818 0.3004716570556521 1.0000000180025095e-35 0.36624623645913607 0.23868934713560616 1.0000000180025095e-35 1.0000000180025095e-35 1.0000000180025095e-35
decision_type=2 2 2 2 2 2 2 2 2 2 2 2 2 2 2 2 2 2 2 2 2 2 2 2 2 2 2 2 2 2
left_child=1 2 3 4 5 6 7 8 9 10 11 12 13 14 16 -16 17 21 19 -19 -12 24 23 -2 25 26 27 28 29 -1
right_child=22 -3 -4 -5 -6 -7 -8 -9 -10 -11 20 -13 -14 -15 15 -17 -18 18 -20 -21 -22 -23 -24 -25 -26 -27 -28 -29 -30 -31
leaf_value=-0.019696512538359776 0.042818293643186497 0.061289747144761313 0.060983973476367796 -0.043366553283525205 0.054882841085719704 0.033295330978269859 0.064707549965184463 0.061211888965220979 0.060842867687327752 0.063464461814975073 0.061154338230120689 0.055696429648090712 0.059252350396569502 0.043208160587096499 0.066304633496617985 -0.051052820205863048 -0.046720752082313022 0.056284848806307824 -0.046757639950671039 -0.032543511939962952 -0.050363194667527512 0.065476988156549065 -0.053893013458285101 -0.03936662085073362 0.062834299834885338 0.050819525128421909 0.033863616960850683 0.054160452275163529 0.084991300417576146 0.075033227892885607
leaf_weight=7156.5878334343433 876.62747192382812 188.41876015067101 183.83423092961311 434.90209701657295 176.2040102481842 408.17377987504005 122.74198180437088 130.59830585122108 128.24532887339592 109.49057069420815 176.91349491477013 109.52597326040268 92.275530993938446 146.84190082550049 135.01773044466972 44.50260317325592 389.01033103466034 316.97983866930008 104.71989223361015 109.0392159819603 42.468637526035309 65.468445837497711 53.385927379131317 68.697155147790909 67.497886270284653 91.236886918544769 152.60989847779274 73.876632809638977 36.233415842056274 44.006910502910614
leaf_count=21098 2361 508 495 1315 474 1097 330 352 346 293 475 295 248 398 362 126 1201 886 322 317 122 177 145 187 181 245 421 200 102 121
internal_value=0 -0.00266098 -0.00375153 -0.00484683 -0.00324071 -0.00423949 -0.00579555 -0.00668556 -0.00760995 -0.00853751 -0.00938024 -0.0105557 -0.0113596 -0.012089 -0.0130131 0.037212 -0.0140606 -0.0125146 0.017704 0.0335493 0.0395664 -0.0146009 0.0319954 0.0368459 -0.0152887 -0.0159867 -0.0168034 -0.0178611 -0.0185963 -0.0191176
internal_weight=0 11237.4 11049 10865.2 10430.3 10254.1 9845.89 9723.15 9592.55 9464.3 9354.81 9135.43 9025.9 8933.63 8786.79 179.52 8607.27 8218.26 530.739 426.019 219.382 7687.52 998.711 945.325 7622.05 7554.55 7463.31 7310.7 7236.83 7200.59
internal_count=35200 32507 31999 31504 30189 29715 28618 28288 27936 27590 27297 26700 26405 26157 25759 488 25271 24070 1525 1203 597 22545 2693 2548 22368 22187 21942 21521 21321 21219
is_linear=0
shrinkage=0.05


Tree=21
num_leaves=31
num_cat=0
split_feature=264 79 43 536 49 112 426 554 8 50 620 108 336 131 529 134 599 402 326 162 303 405 120 232 397 2 200 152 3 88
split_gain=698.7 505.384 447.324 434.673 456.142 371.509 362.198 338.307 350.405 348.613 342.106 301.697 284.958 287.318 272.894 273.717 270.387 273.825 264.279 234.391 202.046 188.455 184.538 161.16 158.7 159.882 160.786 161.901 156.927 118.461
